digraph Tree {
node [shape=box, style="filled, rounded", color="black", fontname=helvetica] ;
edge [fontname=helvetica] ;
0 [label="High <= 0.776\nentropy = 1.45\nsamples = 4075\nvalue = [1111.0, 2001.0, 3370.5]\nclass = 1", fillcolor="#8139e54e"] ;
1 [label="trend_ema_slow <= 0.038\nentropy = 1.395\nsamples = 2543\nvalue = [855, 960, 2548]\nclass = 1", fillcolor="#8139e577"] ;
0 -> 1 [labeldistance=2.5, labelangle=45, headlabel="True"] ;
2 [label="momentum_mfi <= 0.523\nentropy = 1.288\nsamples = 896\nvalue = [361.0, 232.0, 1060.5]\nclass = 1", fillcolor="#8139e58a"] ;
1 -> 2 ;
3 [label="volume_obv <= 0.596\nentropy = 1.391\nsamples = 562\nvalue = [250.0, 155.0, 549.5]\nclass = 1", fillcolor="#8139e56c"] ;
2 -> 3 ;
4 [label="entropy = 1.279\nsamples = 321\nvalue = [143.0, 71.0, 374.5]\nclass = 1", fillcolor="#8139e585"] ;
3 -> 4 ;
5 [label="entropy = 1.515\nsamples = 241\nvalue = [107, 84, 175]\nclass = 1", fillcolor="#8139e543"] ;
3 -> 5 ;
6 [label="volume_cmf <= 0.318\nentropy = 1.103\nsamples = 334\nvalue = [111, 77, 511]\nclass = 1", fillcolor="#8139e5ad"] ;
2 -> 6 ;
7 [label="entropy = 1.53\nsamples = 52\nvalue = [29, 15, 28]\nclass = -1", fillcolor="#e5813906"] ;
6 -> 7 ;
8 [label="entropy = 1.004\nsamples = 282\nvalue = [82, 62, 483]\nclass = 1", fillcolor="#8139e5bc"] ;
6 -> 8 ;
9 [label="volume_obv <= 0.91\nentropy = 1.432\nsamples = 1647\nvalue = [494.0, 728.0, 1487.5]\nclass = 1", fillcolor="#8139e562"] ;
1 -> 9 ;
10 [label="Resistance <= 0.018\nentropy = 1.396\nsamples = 1132\nvalue = [365, 445, 1127]\nclass = 1", fillcolor="#8139e575"] ;
9 -> 10 ;
11 [label="entropy = 1.579\nsamples = 101\nvalue = [48.0, 42.0, 38.5]\nclass = -1", fillcolor="#e5813912"] ;
10 -> 11 ;
12 [label="entropy = 1.364\nsamples = 1031\nvalue = [317.0, 403.0, 1088.5]\nclass = 1", fillcolor="#8139e57c"] ;
10 -> 12 ;
13 [label="momentum_rsi <= 0.767\nentropy = 1.475\nsamples = 515\nvalue = [129.0, 283.0, 360.5]\nclass = 1", fillcolor="#8139e528"] ;
9 -> 13 ;
14 [label="entropy = 1.454\nsamples = 431\nvalue = [114.0, 218.0, 346.5]\nclass = 1", fillcolor="#8139e547"] ;
13 -> 14 ;
15 [label="entropy = 1.2\nsamples = 84\nvalue = [15, 65, 14]\nclass = 0", fillcolor="#39e581a1"] ;
13 -> 15 ;
16 [label="volume_obv <= 0.925\nentropy = 1.402\nsamples = 1532\nvalue = [256.0, 1041.0, 822.5]\nclass = 0", fillcolor="#39e5812b"] ;
0 -> 16 [labeldistance=2.5, labelangle=-45, headlabel="False"] ;
17 [label="Close <= 0.751\nentropy = 1.441\nsamples = 460\nvalue = [110, 246, 364]\nclass = 1", fillcolor="#8139e53f"] ;
16 -> 17 ;
18 [label="volume_nvi <= 0.91\nentropy = 0.863\nsamples = 28\nvalue = [8, 20, 0]\nclass = 0", fillcolor="#39e58199"] ;
17 -> 18 ;
19 [label="entropy = 0.0\nsamples = 11\nvalue = [0, 11, 0]\nclass = 0", fillcolor="#39e581ff"] ;
18 -> 19 ;
20 [label="entropy = 0.998\nsamples = 17\nvalue = [8, 9, 0]\nclass = 0", fillcolor="#39e5811c"] ;
18 -> 20 ;
21 [label="trend_ichimoku_b <= 0.165\nentropy = 1.422\nsamples = 432\nvalue = [102, 226, 364]\nclass = 1", fillcolor="#8139e54c"] ;
17 -> 21 ;
22 [label="entropy = 1.578\nsamples = 98\nvalue = [38, 48, 42]\nclass = 0", fillcolor="#39e58112"] ;
21 -> 22 ;
23 [label="entropy = 1.343\nsamples = 334\nvalue = [64, 178, 322]\nclass = 1", fillcolor="#8139e55f"] ;
21 -> 23 ;
24 [label="momentum_stoch_signal <= 0.96\nentropy = 1.331\nsamples = 1072\nvalue = [146.0, 795.0, 458.5]\nclass = 0", fillcolor="#39e5815b"] ;
16 -> 24 ;
25 [label="trend_vortex_ind_pos <= 0.9\nentropy = 1.374\nsamples = 864\nvalue = [131.0, 610.0, 430.5]\nclass = 0", fillcolor="#39e5813e"] ;
24 -> 25 ;
26 [label="entropy = 1.372\nsamples = 793\nvalue = [117, 554, 427]\nclass = 0", fillcolor="#39e58130"] ;
25 -> 26 ;
27 [label="entropy = 0.964\nsamples = 71\nvalue = [14.0, 56.0, 3.5]\nclass = 0", fillcolor="#39e581b4"] ;
25 -> 27 ;
28 [label="volume_obv <= 0.98\nentropy = 0.874\nsamples = 208\nvalue = [15, 185, 28]\nclass = 0", fillcolor="#39e581c8"] ;
24 -> 28 ;
29 [label="entropy = 0.24\nsamples = 76\nvalue = [3, 73, 0]\nclass = 0", fillcolor="#39e581f5"] ;
28 -> 29 ;
30 [label="entropy = 1.063\nsamples = 132\nvalue = [12, 112, 28]\nclass = 0", fillcolor="#39e581ad"] ;
28 -> 30 ;
}