digraph Tree {
node [shape=box] ;
0 [label="X[3] <= 0.647\ngini = 0.622\nsamples = 1926\nvalue = [500, 972, 454]"] ;
1 [label="X[26] <= 0.005\ngini = 0.664\nsamples = 999\nvalue = [354, 352, 293]"] ;
0 -> 1 [labeldistance=2.5, labelangle=45, headlabel="True"] ;
2 [label="X[38] <= 0.789\ngini = 0.642\nsamples = 351\nvalue = [157, 79, 115]"] ;
1 -> 2 ;
3 [label="X[13] <= 0.101\ngini = 0.64\nsamples = 343\nvalue = [157, 79, 107]"] ;
2 -> 3 ;
4 [label="X[6] <= 0.678\ngini = 0.615\nsamples = 264\nvalue = [136, 56, 72]"] ;
3 -> 4 ;
5 [label="X[33] <= 0.281\ngini = 0.568\nsamples = 176\nvalue = [102, 26, 48]"] ;
4 -> 5 ;
6 [label="X[58] <= 0.958\ngini = 0.247\nsamples = 29\nvalue = [25, 2, 2]"] ;
5 -> 6 ;
7 [label="X[45] <= 0.014\ngini = 0.14\nsamples = 27\nvalue = [25, 1, 1]"] ;
6 -> 7 ;
8 [label="gini = 0.0\nsamples = 1\nvalue = [0, 0, 1]"] ;
7 -> 8 ;
9 [label="X[53] <= 0.014\ngini = 0.074\nsamples = 26\nvalue = [25, 1, 0]"] ;
7 -> 9 ;
10 [label="X[40] <= 0.218\ngini = 0.5\nsamples = 2\nvalue = [1, 1, 0]"] ;
9 -> 10 ;
11 [label="gini = 0.0\nsamples = 1\nvalue = [1, 0, 0]"] ;
10 -> 11 ;
12 [label="gini = 0.0\nsamples = 1\nvalue = [0, 1, 0]"] ;
10 -> 12 ;
13 [label="gini = 0.0\nsamples = 24\nvalue = [24, 0, 0]"] ;
9 -> 13 ;
14 [label="X[3] <= 0.336\ngini = 0.5\nsamples = 2\nvalue = [0, 1, 1]"] ;
6 -> 14 ;
15 [label="gini = 0.0\nsamples = 1\nvalue = [0, 1, 0]"] ;
14 -> 15 ;
16 [label="gini = 0.0\nsamples = 1\nvalue = [0, 0, 1]"] ;
14 -> 16 ;
17 [label="X[38] <= 0.3\ngini = 0.601\nsamples = 147\nvalue = [77, 24, 46]"] ;
5 -> 17 ;
18 [label="X[6] <= 0.219\ngini = 0.564\nsamples = 126\nvalue = [73, 17, 36]"] ;
17 -> 18 ;
19 [label="X[2] <= 0.0\ngini = 0.604\nsamples = 82\nvalue = [39, 11, 32]"] ;
18 -> 19 ;
20 [label="X[63] <= 0.071\ngini = 0.506\nsamples = 26\nvalue = [17, 6, 3]"] ;
19 -> 20 ;
21 [label="X[36] <= 0.327\ngini = 0.364\nsamples = 18\nvalue = [14, 1, 3]"] ;
20 -> 21 ;
22 [label="X[47] <= 0.734\ngini = 0.227\nsamples = 16\nvalue = [14, 1, 1]"] ;
21 -> 22 ;
23 [label="X[45] <= 0.379\ngini = 0.124\nsamples = 15\nvalue = [14, 1, 0]"] ;
22 -> 23 ;
24 [label="gini = 0.0\nsamples = 13\nvalue = [13, 0, 0]"] ;
23 -> 24 ;
25 [label="X[66] <= 0.177\ngini = 0.5\nsamples = 2\nvalue = [1, 1, 0]"] ;
23 -> 25 ;
26 [label="gini = 0.0\nsamples = 1\nvalue = [0, 1, 0]"] ;
25 -> 26 ;
27 [label="gini = 0.0\nsamples = 1\nvalue = [1, 0, 0]"] ;
25 -> 27 ;
28 [label="gini = 0.0\nsamples = 1\nvalue = [0, 0, 1]"] ;
22 -> 28 ;
29 [label="gini = 0.0\nsamples = 2\nvalue = [0, 0, 2]"] ;
21 -> 29 ;
30 [label="X[64] <= 0.28\ngini = 0.469\nsamples = 8\nvalue = [3, 5, 0]"] ;
20 -> 30 ;
31 [label="gini = 0.0\nsamples = 5\nvalue = [0, 5, 0]"] ;
30 -> 31 ;
32 [label="gini = 0.0\nsamples = 3\nvalue = [3, 0, 0]"] ;
30 -> 32 ;
33 [label="X[57] <= 0.39\ngini = 0.57\nsamples = 56\nvalue = [22, 5, 29]"] ;
19 -> 33 ;
34 [label="X[50] <= 0.114\ngini = 0.381\nsamples = 17\nvalue = [3, 1, 13]"] ;
33 -> 34 ;
35 [label="gini = 0.0\nsamples = 2\nvalue = [2, 0, 0]"] ;
34 -> 35 ;
36 [label="X[64] <= 0.561\ngini = 0.24\nsamples = 15\nvalue = [1, 1, 13]"] ;
34 -> 36 ;
37 [label="X[49] <= 0.303\ngini = 0.133\nsamples = 14\nvalue = [1, 0, 13]"] ;
36 -> 37 ;
38 [label="gini = 0.0\nsamples = 13\nvalue = [0, 0, 13]"] ;
37 -> 38 ;
39 [label="gini = 0.0\nsamples = 1\nvalue = [1, 0, 0]"] ;
37 -> 39 ;
40 [label="gini = 0.0\nsamples = 1\nvalue = [0, 1, 0]"] ;
36 -> 40 ;
41 [label="X[47] <= 0.572\ngini = 0.584\nsamples = 39\nvalue = [19, 4, 16]"] ;
33 -> 41 ;
42 [label="X[45] <= 0.154\ngini = 0.438\nsamples = 18\nvalue = [13, 2, 3]"] ;
41 -> 42 ;
43 [label="X[64] <= 0.518\ngini = 0.56\nsamples = 5\nvalue = [1, 1, 3]"] ;
42 -> 43 ;
44 [label="X[27] <= 0.259\ngini = 0.5\nsamples = 2\nvalue = [1, 1, 0]"] ;
43 -> 44 ;
45 [label="gini = 0.0\nsamples = 1\nvalue = [1, 0, 0]"] ;
44 -> 45 ;
46 [label="gini = 0.0\nsamples = 1\nvalue = [0, 1, 0]"] ;
44 -> 46 ;
47 [label="gini = 0.0\nsamples = 3\nvalue = [0, 0, 3]"] ;
43 -> 47 ;
48 [label="X[31] <= 0.089\ngini = 0.142\nsamples = 13\nvalue = [12, 1, 0]"] ;
42 -> 48 ;
49 [label="X[27] <= 0.337\ngini = 0.5\nsamples = 2\nvalue = [1, 1, 0]"] ;
48 -> 49 ;
50 [label="gini = 0.0\nsamples = 1\nvalue = [0, 1, 0]"] ;
49 -> 50 ;
51 [label="gini = 0.0\nsamples = 1\nvalue = [1, 0, 0]"] ;
49 -> 51 ;
52 [label="gini = 0.0\nsamples = 11\nvalue = [11, 0, 0]"] ;
48 -> 52 ;
53 [label="X[5] <= 0.738\ngini = 0.526\nsamples = 21\nvalue = [6, 2, 13]"] ;
41 -> 53 ;
54 [label="X[60] <= 0.022\ngini = 0.272\nsamples = 13\nvalue = [1, 1, 11]"] ;
53 -> 54 ;
55 [label="gini = 0.0\nsamples = 1\nvalue = [1, 0, 0]"] ;
54 -> 55 ;
56 [label="X[37] <= 0.001\ngini = 0.153\nsamples = 12\nvalue = [0, 1, 11]"] ;
54 -> 56 ;
57 [label="gini = 0.0\nsamples = 11\nvalue = [0, 0, 11]"] ;
56 -> 57 ;
58 [label="gini = 0.0\nsamples = 1\nvalue = [0, 1, 0]"] ;
56 -> 58 ;
59 [label="X[33] <= 0.602\ngini = 0.531\nsamples = 8\nvalue = [5, 1, 2]"] ;
53 -> 59 ;
60 [label="X[13] <= 0.008\ngini = 0.444\nsamples = 3\nvalue = [0, 1, 2]"] ;
59 -> 60 ;
61 [label="gini = 0.0\nsamples = 2\nvalue = [0, 0, 2]"] ;
60 -> 61 ;
62 [label="gini = 0.0\nsamples = 1\nvalue = [0, 1, 0]"] ;
60 -> 62 ;
63 [label="gini = 0.0\nsamples = 5\nvalue = [5, 0, 0]"] ;
59 -> 63 ;
64 [label="X[54] <= 0.068\ngini = 0.376\nsamples = 44\nvalue = [34, 6, 4]"] ;
18 -> 64 ;
65 [label="X[22] <= 0.003\ngini = 0.622\nsamples = 14\nvalue = [7, 4, 3]"] ;
64 -> 65 ;
66 [label="gini = 0.0\nsamples = 6\nvalue = [6, 0, 0]"] ;
65 -> 66 ;
67 [label="X[34] <= 0.12\ngini = 0.594\nsamples = 8\nvalue = [1, 4, 3]"] ;
65 -> 67 ;
68 [label="gini = 0.0\nsamples = 3\nvalue = [0, 3, 0]"] ;
67 -> 68 ;
69 [label="X[58] <= 0.152\ngini = 0.56\nsamples = 5\nvalue = [1, 1, 3]"] ;
67 -> 69 ;
70 [label="X[18] <= 0.054\ngini = 0.5\nsamples = 2\nvalue = [1, 1, 0]"] ;
69 -> 70 ;
71 [label="gini = 0.0\nsamples = 1\nvalue = [0, 1, 0]"] ;
70 -> 71 ;
72 [label="gini = 0.0\nsamples = 1\nvalue = [1, 0, 0]"] ;
70 -> 72 ;
73 [label="gini = 0.0\nsamples = 3\nvalue = [0, 0, 3]"] ;
69 -> 73 ;
74 [label="X[13] <= 0.092\ngini = 0.184\nsamples = 30\nvalue = [27, 2, 1]"] ;
64 -> 74 ;
75 [label="X[54] <= 0.384\ngini = 0.071\nsamples = 27\nvalue = [26, 0, 1]"] ;
74 -> 75 ;
76 [label="gini = 0.0\nsamples = 26\nvalue = [26, 0, 0]"] ;
75 -> 76 ;
77 [label="gini = 0.0\nsamples = 1\nvalue = [0, 0, 1]"] ;
75 -> 77 ;
78 [label="X[27] <= 0.709\ngini = 0.444\nsamples = 3\nvalue = [1, 2, 0]"] ;
74 -> 78 ;
79 [label="gini = 0.0\nsamples = 1\nvalue = [1, 0, 0]"] ;
78 -> 79 ;
80 [label="gini = 0.0\nsamples = 2\nvalue = [0, 2, 0]"] ;
78 -> 80 ;
81 [label="X[48] <= 0.602\ngini = 0.626\nsamples = 21\nvalue = [4, 7, 10]"] ;
17 -> 81 ;
82 [label="X[47] <= 0.222\ngini = 0.469\nsamples = 16\nvalue = [0, 6, 10]"] ;
81 -> 82 ;
83 [label="gini = 0.0\nsamples = 3\nvalue = [0, 3, 0]"] ;
82 -> 83 ;
84 [label="X[33] <= 0.627\ngini = 0.355\nsamples = 13\nvalue = [0, 3, 10]"] ;
82 -> 84 ;
85 [label="X[6] <= 0.51\ngini = 0.5\nsamples = 6\nvalue = [0, 3, 3]"] ;
84 -> 85 ;
86 [label="gini = 0.0\nsamples = 3\nvalue = [0, 3, 0]"] ;
85 -> 86 ;
87 [label="gini = 0.0\nsamples = 3\nvalue = [0, 0, 3]"] ;
85 -> 87 ;
88 [label="gini = 0.0\nsamples = 7\nvalue = [0, 0, 7]"] ;
84 -> 88 ;
89 [label="X[10] <= 0.892\ngini = 0.32\nsamples = 5\nvalue = [4, 1, 0]"] ;
81 -> 89 ;
90 [label="gini = 0.0\nsamples = 4\nvalue = [4, 0, 0]"] ;
89 -> 90 ;
91 [label="gini = 0.0\nsamples = 1\nvalue = [0, 1, 0]"] ;
89 -> 91 ;
92 [label="X[5] <= 0.947\ngini = 0.66\nsamples = 88\nvalue = [34, 30, 24]"] ;
4 -> 92 ;
93 [label="X[23] <= 0.069\ngini = 0.637\nsamples = 75\nvalue = [33, 27, 15]"] ;
92 -> 93 ;
94 [label="X[43] <= 0.178\ngini = 0.513\nsamples = 45\nvalue = [25, 19, 1]"] ;
93 -> 94 ;
95 [label="X[7] <= 0.537\ngini = 0.416\nsamples = 29\nvalue = [21, 7, 1]"] ;
94 -> 95 ;
96 [label="X[4] <= 0.304\ngini = 0.322\nsamples = 26\nvalue = [21, 4, 1]"] ;
95 -> 96 ;
97 [label="X[49] <= 0.389\ngini = 0.594\nsamples = 8\nvalue = [3, 4, 1]"] ;
96 -> 97 ;
98 [label="gini = 0.0\nsamples = 4\nvalue = [0, 4, 0]"] ;
97 -> 98 ;
99 [label="X[6] <= 0.856\ngini = 0.375\nsamples = 4\nvalue = [3, 0, 1]"] ;
97 -> 99 ;
100 [label="gini = 0.0\nsamples = 1\nvalue = [0, 0, 1]"] ;
99 -> 100 ;
101 [label="gini = 0.0\nsamples = 3\nvalue = [3, 0, 0]"] ;
99 -> 101 ;
102 [label="gini = 0.0\nsamples = 18\nvalue = [18, 0, 0]"] ;
96 -> 102 ;
103 [label="gini = 0.0\nsamples = 3\nvalue = [0, 3, 0]"] ;
95 -> 103 ;
104 [label="X[51] <= 0.27\ngini = 0.375\nsamples = 16\nvalue = [4, 12, 0]"] ;
94 -> 104 ;
105 [label="X[47] <= 0.114\ngini = 0.142\nsamples = 13\nvalue = [1, 12, 0]"] ;
104 -> 105 ;
106 [label="gini = 0.0\nsamples = 1\nvalue = [1, 0, 0]"] ;
105 -> 106 ;
107 [label="gini = 0.0\nsamples = 12\nvalue = [0, 12, 0]"] ;
105 -> 107 ;
108 [label="gini = 0.0\nsamples = 3\nvalue = [3, 0, 0]"] ;
104 -> 108 ;
109 [label="X[8] <= 0.906\ngini = 0.64\nsamples = 30\nvalue = [8, 8, 14]"] ;
93 -> 109 ;
110 [label="X[66] <= 0.075\ngini = 0.525\nsamples = 22\nvalue = [3, 5, 14]"] ;
109 -> 110 ;
111 [label="X[53] <= 0.034\ngini = 0.611\nsamples = 6\nvalue = [3, 2, 1]"] ;
110 -> 111 ;
112 [label="X[33] <= 0.572\ngini = 0.444\nsamples = 3\nvalue = [0, 2, 1]"] ;
111 -> 112 ;
113 [label="gini = 0.0\nsamples = 1\nvalue = [0, 0, 1]"] ;
112 -> 113 ;
114 [label="gini = 0.0\nsamples = 2\nvalue = [0, 2, 0]"] ;
112 -> 114 ;
115 [label="gini = 0.0\nsamples = 3\nvalue = [3, 0, 0]"] ;
111 -> 115 ;
116 [label="X[0] <= 0.254\ngini = 0.305\nsamples = 16\nvalue = [0, 3, 13]"] ;
110 -> 116 ;
117 [label="X[14] <= 0.022\ngini = 0.133\nsamples = 14\nvalue = [0, 1, 13]"] ;
116 -> 117 ;
118 [label="gini = 0.0\nsamples = 13\nvalue = [0, 0, 13]"] ;
117 -> 118 ;
119 [label="gini = 0.0\nsamples = 1\nvalue = [0, 1, 0]"] ;
117 -> 119 ;
120 [label="gini = 0.0\nsamples = 2\nvalue = [0, 2, 0]"] ;
116 -> 120 ;
121 [label="X[2] <= 0.167\ngini = 0.469\nsamples = 8\nvalue = [5, 3, 0]"] ;
109 -> 121 ;
122 [label="X[4] <= 0.068\ngini = 0.375\nsamples = 4\nvalue = [1, 3, 0]"] ;
121 -> 122 ;
123 [label="gini = 0.0\nsamples = 1\nvalue = [1, 0, 0]"] ;
122 -> 123 ;
124 [label="gini = 0.0\nsamples = 3\nvalue = [0, 3, 0]"] ;
122 -> 124 ;
125 [label="gini = 0.0\nsamples = 4\nvalue = [4, 0, 0]"] ;
121 -> 125 ;
126 [label="X[43] <= 0.036\ngini = 0.462\nsamples = 13\nvalue = [1, 3, 9]"] ;
92 -> 126 ;
127 [label="gini = 0.0\nsamples = 2\nvalue = [0, 2, 0]"] ;
126 -> 127 ;
128 [label="X[41] <= 0.521\ngini = 0.314\nsamples = 11\nvalue = [1, 1, 9]"] ;
126 -> 128 ;
129 [label="X[32] <= 0.2\ngini = 0.18\nsamples = 10\nvalue = [0, 1, 9]"] ;
128 -> 129 ;
130 [label="gini = 0.0\nsamples = 1\nvalue = [0, 1, 0]"] ;
129 -> 130 ;
131 [label="gini = 0.0\nsamples = 9\nvalue = [0, 0, 9]"] ;
129 -> 131 ;
132 [label="gini = 0.0\nsamples = 1\nvalue = [1, 0, 0]"] ;
128 -> 132 ;
133 [label="X[34] <= 0.608\ngini = 0.648\nsamples = 79\nvalue = [21, 23, 35]"] ;
3 -> 133 ;
134 [label="X[14] <= 0.006\ngini = 0.595\nsamples = 57\nvalue = [7, 22, 28]"] ;
133 -> 134 ;
135 [label="X[22] <= 0.363\ngini = 0.526\nsamples = 36\nvalue = [6, 7, 23]"] ;
134 -> 135 ;
136 [label="X[25] <= 0.031\ngini = 0.622\nsamples = 14\nvalue = [3, 7, 4]"] ;
135 -> 136 ;
137 [label="X[16] <= 0.079\ngini = 0.37\nsamples = 9\nvalue = [1, 7, 1]"] ;
136 -> 137 ;
138 [label="X[33] <= 0.832\ngini = 0.219\nsamples = 8\nvalue = [1, 7, 0]"] ;
137 -> 138 ;
139 [label="gini = 0.0\nsamples = 7\nvalue = [0, 7, 0]"] ;
138 -> 139 ;
140 [label="gini = 0.0\nsamples = 1\nvalue = [1, 0, 0]"] ;
138 -> 140 ;
141 [label="gini = 0.0\nsamples = 1\nvalue = [0, 0, 1]"] ;
137 -> 141 ;
142 [label="X[46] <= 0.021\ngini = 0.48\nsamples = 5\nvalue = [2, 0, 3]"] ;
136 -> 142 ;
143 [label="gini = 0.0\nsamples = 2\nvalue = [2, 0, 0]"] ;
142 -> 143 ;
144 [label="gini = 0.0\nsamples = 3\nvalue = [0, 0, 3]"] ;
142 -> 144 ;
145 [label="X[0] <= 0.338\ngini = 0.236\nsamples = 22\nvalue = [3, 0, 19]"] ;
135 -> 145 ;
146 [label="gini = 0.0\nsamples = 18\nvalue = [0, 0, 18]"] ;
145 -> 146 ;
147 [label="X[30] <= 0.114\ngini = 0.375\nsamples = 4\nvalue = [3, 0, 1]"] ;
145 -> 147 ;
148 [label="gini = 0.0\nsamples = 1\nvalue = [0, 0, 1]"] ;
147 -> 148 ;
149 [label="gini = 0.0\nsamples = 3\nvalue = [3, 0, 0]"] ;
147 -> 149 ;
150 [label="X[27] <= 0.622\ngini = 0.431\nsamples = 21\nvalue = [1, 15, 5]"] ;
134 -> 150 ;
151 [label="X[42] <= 0.083\ngini = 0.24\nsamples = 15\nvalue = [1, 13, 1]"] ;
150 -> 151 ;
152 [label="gini = 0.0\nsamples = 1\nvalue = [1, 0, 0]"] ;
151 -> 152 ;
153 [label="X[8] <= 0.917\ngini = 0.133\nsamples = 14\nvalue = [0, 13, 1]"] ;
151 -> 153 ;
154 [label="gini = 0.0\nsamples = 13\nvalue = [0, 13, 0]"] ;
153 -> 154 ;
155 [label="gini = 0.0\nsamples = 1\nvalue = [0, 0, 1]"] ;
153 -> 155 ;
156 [label="X[2] <= 0.335\ngini = 0.444\nsamples = 6\nvalue = [0, 2, 4]"] ;
150 -> 156 ;
157 [label="gini = 0.0\nsamples = 4\nvalue = [0, 0, 4]"] ;
156 -> 157 ;
158 [label="gini = 0.0\nsamples = 2\nvalue = [0, 2, 0]"] ;
156 -> 158 ;
159 [label="X[56] <= 0.718\ngini = 0.492\nsamples = 22\nvalue = [14, 1, 7]"] ;
133 -> 159 ;
160 [label="X[0] <= 0.168\ngini = 0.463\nsamples = 11\nvalue = [4, 0, 7]"] ;
159 -> 160 ;
161 [label="gini = 0.0\nsamples = 4\nvalue = [4, 0, 0]"] ;
160 -> 161 ;
162 [label="gini = 0.0\nsamples = 7\nvalue = [0, 0, 7]"] ;
160 -> 162 ;
163 [label="X[52] <= 0.788\ngini = 0.165\nsamples = 11\nvalue = [10, 1, 0]"] ;
159 -> 163 ;
164 [label="gini = 0.0\nsamples = 10\nvalue = [10, 0, 0]"] ;
163 -> 164 ;
165 [label="gini = 0.0\nsamples = 1\nvalue = [0, 1, 0]"] ;
163 -> 165 ;
166 [label="gini = 0.0\nsamples = 8\nvalue = [0, 0, 8]"] ;
2 -> 166 ;
167 [label="X[23] <= 0.898\ngini = 0.655\nsamples = 648\nvalue = [197, 273, 178]"] ;
1 -> 167 ;
168 [label="X[5] <= 0.808\ngini = 0.65\nsamples = 584\nvalue = [163, 256, 165]"] ;
167 -> 168 ;
169 [label="X[65] <= 0.424\ngini = 0.645\nsamples = 519\nvalue = [130, 233, 156]"] ;
168 -> 169 ;
170 [label="X[31] <= 0.42\ngini = 0.63\nsamples = 204\nvalue = [67, 96, 41]"] ;
169 -> 170 ;
171 [label="X[61] <= 0.261\ngini = 0.59\nsamples = 27\nvalue = [15, 5, 7]"] ;
170 -> 171 ;
172 [label="X[11] <= 0.803\ngini = 0.64\nsamples = 15\nvalue = [4, 4, 7]"] ;
171 -> 172 ;
173 [label="gini = 0.0\nsamples = 4\nvalue = [0, 4, 0]"] ;
172 -> 173 ;
174 [label="X[42] <= 0.979\ngini = 0.463\nsamples = 11\nvalue = [4, 0, 7]"] ;
172 -> 174 ;
175 [label="X[56] <= 0.042\ngini = 0.444\nsamples = 6\nvalue = [4, 0, 2]"] ;
174 -> 175 ;
176 [label="gini = 0.0\nsamples = 2\nvalue = [0, 0, 2]"] ;
175 -> 176 ;
177 [label="gini = 0.0\nsamples = 4\nvalue = [4, 0, 0]"] ;
175 -> 177 ;
178 [label="gini = 0.0\nsamples = 5\nvalue = [0, 0, 5]"] ;
174 -> 178 ;
179 [label="X[49] <= 0.053\ngini = 0.153\nsamples = 12\nvalue = [11, 1, 0]"] ;
171 -> 179 ;
180 [label="gini = 0.0\nsamples = 1\nvalue = [0, 1, 0]"] ;
179 -> 180 ;
181 [label="gini = 0.0\nsamples = 11\nvalue = [11, 0, 0]"] ;
179 -> 181 ;
182 [label="X[66] <= 0.015\ngini = 0.612\nsamples = 177\nvalue = [52, 91, 34]"] ;
170 -> 182 ;
183 [label="X[8] <= 0.569\ngini = 0.327\nsamples = 34\nvalue = [7, 27, 0]"] ;
182 -> 183 ;
184 [label="gini = 0.0\nsamples = 18\nvalue = [0, 18, 0]"] ;
183 -> 184 ;
185 [label="X[24] <= 0.096\ngini = 0.492\nsamples = 16\nvalue = [7, 9, 0]"] ;
183 -> 185 ;
186 [label="X[49] <= 0.12\ngini = 0.245\nsamples = 7\nvalue = [6, 1, 0]"] ;
185 -> 186 ;
187 [label="gini = 0.0\nsamples = 6\nvalue = [6, 0, 0]"] ;
186 -> 187 ;
188 [label="gini = 0.0\nsamples = 1\nvalue = [0, 1, 0]"] ;
186 -> 188 ;
189 [label="X[61] <= 0.451\ngini = 0.198\nsamples = 9\nvalue = [1, 8, 0]"] ;
185 -> 189 ;
190 [label="gini = 0.0\nsamples = 8\nvalue = [0, 8, 0]"] ;
189 -> 190 ;
191 [label="gini = 0.0\nsamples = 1\nvalue = [1, 0, 0]"] ;
189 -> 191 ;
192 [label="X[19] <= 0.848\ngini = 0.644\nsamples = 143\nvalue = [45, 64, 34]"] ;
182 -> 192 ;
193 [label="X[12] <= 0.537\ngini = 0.64\nsamples = 49\nvalue = [10, 18, 21]"] ;
192 -> 193 ;
194 [label="X[4] <= 0.626\ngini = 0.5\nsamples = 12\nvalue = [6, 6, 0]"] ;
193 -> 194 ;
195 [label="X[48] <= 0.034\ngini = 0.278\nsamples = 6\nvalue = [1, 5, 0]"] ;
194 -> 195 ;
196 [label="gini = 0.0\nsamples = 1\nvalue = [1, 0, 0]"] ;
195 -> 196 ;
197 [label="gini = 0.0\nsamples = 5\nvalue = [0, 5, 0]"] ;
195 -> 197 ;
198 [label="X[10] <= 0.133\ngini = 0.278\nsamples = 6\nvalue = [5, 1, 0]"] ;
194 -> 198 ;
199 [label="gini = 0.0\nsamples = 1\nvalue = [0, 1, 0]"] ;
198 -> 199 ;
200 [label="gini = 0.0\nsamples = 5\nvalue = [5, 0, 0]"] ;
198 -> 200 ;
201 [label="X[27] <= 0.012\ngini = 0.561\nsamples = 37\nvalue = [4, 12, 21]"] ;
193 -> 201 ;
202 [label="X[46] <= 0.051\ngini = 0.346\nsamples = 9\nvalue = [0, 7, 2]"] ;
201 -> 202 ;
203 [label="gini = 0.0\nsamples = 6\nvalue = [0, 6, 0]"] ;
202 -> 203 ;
204 [label="X[0] <= 0.088\ngini = 0.444\nsamples = 3\nvalue = [0, 1, 2]"] ;
202 -> 204 ;
205 [label="gini = 0.0\nsamples = 2\nvalue = [0, 0, 2]"] ;
204 -> 205 ;
206 [label="gini = 0.0\nsamples = 1\nvalue = [0, 1, 0]"] ;
204 -> 206 ;
207 [label="X[14] <= 0.739\ngini = 0.487\nsamples = 28\nvalue = [4, 5, 19]"] ;
201 -> 207 ;
208 [label="X[45] <= 0.478\ngini = 0.351\nsamples = 24\nvalue = [2, 3, 19]"] ;
207 -> 208 ;
209 [label="X[33] <= 0.232\ngini = 0.105\nsamples = 18\nvalue = [1, 0, 17]"] ;
208 -> 209 ;
210 [label="gini = 0.0\nsamples = 1\nvalue = [1, 0, 0]"] ;
209 -> 210 ;
211 [label="gini = 0.0\nsamples = 17\nvalue = [0, 0, 17]"] ;
209 -> 211 ;
212 [label="X[29] <= 0.261\ngini = 0.611\nsamples = 6\nvalue = [1, 3, 2]"] ;
208 -> 212 ;
213 [label="gini = 0.0\nsamples = 2\nvalue = [0, 0, 2]"] ;
212 -> 213 ;
214 [label="X[30] <= 0.79\ngini = 0.375\nsamples = 4\nvalue = [1, 3, 0]"] ;
212 -> 214 ;
215 [label="gini = 0.0\nsamples = 3\nvalue = [0, 3, 0]"] ;
214 -> 215 ;
216 [label="gini = 0.0\nsamples = 1\nvalue = [1, 0, 0]"] ;
214 -> 216 ;
217 [label="X[11] <= 0.859\ngini = 0.5\nsamples = 4\nvalue = [2, 2, 0]"] ;
207 -> 217 ;
218 [label="gini = 0.0\nsamples = 2\nvalue = [0, 2, 0]"] ;
217 -> 218 ;
219 [label="gini = 0.0\nsamples = 2\nvalue = [2, 0, 0]"] ;
217 -> 219 ;
220 [label="X[36] <= 0.069\ngini = 0.603\nsamples = 94\nvalue = [35, 46, 13]"] ;
192 -> 220 ;
221 [label="X[52] <= 0.41\ngini = 0.576\nsamples = 47\nvalue = [26, 15, 6]"] ;
220 -> 221 ;
222 [label="X[24] <= 0.2\ngini = 0.445\nsamples = 20\nvalue = [14, 1, 5]"] ;
221 -> 222 ;
223 [label="X[47] <= 0.024\ngini = 0.304\nsamples = 17\nvalue = [14, 1, 2]"] ;
222 -> 223 ;
224 [label="X[1] <= 0.167\ngini = 0.625\nsamples = 4\nvalue = [1, 1, 2]"] ;
223 -> 224 ;
225 [label="X[49] <= 0.058\ngini = 0.5\nsamples = 2\nvalue = [1, 1, 0]"] ;
224 -> 225 ;
226 [label="gini = 0.0\nsamples = 1\nvalue = [0, 1, 0]"] ;
225 -> 226 ;
227 [label="gini = 0.0\nsamples = 1\nvalue = [1, 0, 0]"] ;
225 -> 227 ;
228 [label="gini = 0.0\nsamples = 2\nvalue = [0, 0, 2]"] ;
224 -> 228 ;
229 [label="gini = 0.0\nsamples = 13\nvalue = [13, 0, 0]"] ;
223 -> 229 ;
230 [label="gini = 0.0\nsamples = 3\nvalue = [0, 0, 3]"] ;
222 -> 230 ;
231 [label="X[7] <= 0.146\ngini = 0.532\nsamples = 27\nvalue = [12, 14, 1]"] ;
221 -> 231 ;
232 [label="X[0] <= 0.369\ngini = 0.508\nsamples = 16\nvalue = [10, 5, 1]"] ;
231 -> 232 ;
233 [label="X[4] <= 0.348\ngini = 0.571\nsamples = 7\nvalue = [2, 4, 1]"] ;
232 -> 233 ;
234 [label="gini = 0.0\nsamples = 4\nvalue = [0, 4, 0]"] ;
233 -> 234 ;
235 [label="X[27] <= 0.197\ngini = 0.444\nsamples = 3\nvalue = [2, 0, 1]"] ;
233 -> 235 ;
236 [label="gini = 0.0\nsamples = 2\nvalue = [2, 0, 0]"] ;
235 -> 236 ;
237 [label="gini = 0.0\nsamples = 1\nvalue = [0, 0, 1]"] ;
235 -> 237 ;
238 [label="X[1] <= 0.595\ngini = 0.198\nsamples = 9\nvalue = [8, 1, 0]"] ;
232 -> 238 ;
239 [label="gini = 0.0\nsamples = 8\nvalue = [8, 0, 0]"] ;
238 -> 239 ;
240 [label="gini = 0.0\nsamples = 1\nvalue = [0, 1, 0]"] ;
238 -> 240 ;
241 [label="X[5] <= 0.615\ngini = 0.298\nsamples = 11\nvalue = [2, 9, 0]"] ;
231 -> 241 ;
242 [label="gini = 0.0\nsamples = 9\nvalue = [0, 9, 0]"] ;
241 -> 242 ;
243 [label="gini = 0.0\nsamples = 2\nvalue = [2, 0, 0]"] ;
241 -> 243 ;
244 [label="X[36] <= 0.222\ngini = 0.506\nsamples = 47\nvalue = [9, 31, 7]"] ;
220 -> 244 ;
245 [label="X[10] <= 0.128\ngini = 0.261\nsamples = 27\nvalue = [1, 23, 3]"] ;
244 -> 245 ;
246 [label="gini = 0.0\nsamples = 2\nvalue = [0, 0, 2]"] ;
245 -> 246 ;
247 [label="X[3] <= 0.126\ngini = 0.15\nsamples = 25\nvalue = [1, 23, 1]"] ;
245 -> 247 ;
248 [label="gini = 0.0\nsamples = 1\nvalue = [0, 0, 1]"] ;
247 -> 248 ;
249 [label="X[47] <= 0.052\ngini = 0.08\nsamples = 24\nvalue = [1, 23, 0]"] ;
247 -> 249 ;
250 [label="gini = 0.0\nsamples = 1\nvalue = [1, 0, 0]"] ;
249 -> 250 ;
251 [label="gini = 0.0\nsamples = 23\nvalue = [0, 23, 0]"] ;
249 -> 251 ;
252 [label="X[57] <= 0.188\ngini = 0.64\nsamples = 20\nvalue = [8, 8, 4]"] ;
244 -> 252 ;
253 [label="X[8] <= 0.605\ngini = 0.278\nsamples = 6\nvalue = [0, 5, 1]"] ;
252 -> 253 ;
254 [label="gini = 0.0\nsamples = 5\nvalue = [0, 5, 0]"] ;
253 -> 254 ;
255 [label="gini = 0.0\nsamples = 1\nvalue = [0, 0, 1]"] ;
253 -> 255 ;
256 [label="X[26] <= 0.979\ngini = 0.582\nsamples = 14\nvalue = [8, 3, 3]"] ;
252 -> 256 ;
257 [label="X[48] <= 0.221\ngini = 0.397\nsamples = 11\nvalue = [8, 3, 0]"] ;
256 -> 257 ;
258 [label="gini = 0.0\nsamples = 7\nvalue = [7, 0, 0]"] ;
257 -> 258 ;
259 [label="X[43] <= 0.081\ngini = 0.375\nsamples = 4\nvalue = [1, 3, 0]"] ;
257 -> 259 ;
260 [label="gini = 0.0\nsamples = 1\nvalue = [1, 0, 0]"] ;
259 -> 260 ;
261 [label="gini = 0.0\nsamples = 3\nvalue = [0, 3, 0]"] ;
259 -> 261 ;
262 [label="gini = 0.0\nsamples = 3\nvalue = [0, 0, 3]"] ;
256 -> 262 ;
263 [label="X[47] <= 0.711\ngini = 0.638\nsamples = 315\nvalue = [63, 137, 115]"] ;
169 -> 263 ;
264 [label="X[60] <= 0.711\ngini = 0.645\nsamples = 235\nvalue = [51, 87, 97]"] ;
263 -> 264 ;
265 [label="X[49] <= 0.086\ngini = 0.622\nsamples = 175\nvalue = [32, 59, 84]"] ;
264 -> 265 ;
266 [label="X[9] <= 0.218\ngini = 0.476\nsamples = 19\nvalue = [4, 13, 2]"] ;
265 -> 266 ;
267 [label="X[22] <= 0.038\ngini = 0.32\nsamples = 5\nvalue = [4, 1, 0]"] ;
266 -> 267 ;
268 [label="gini = 0.0\nsamples = 1\nvalue = [0, 1, 0]"] ;
267 -> 268 ;
269 [label="gini = 0.0\nsamples = 4\nvalue = [4, 0, 0]"] ;
267 -> 269 ;
270 [label="X[41] <= 0.542\ngini = 0.245\nsamples = 14\nvalue = [0, 12, 2]"] ;
266 -> 270 ;
271 [label="X[58] <= 0.693\ngini = 0.142\nsamples = 13\nvalue = [0, 12, 1]"] ;
270 -> 271 ;
272 [label="gini = 0.0\nsamples = 12\nvalue = [0, 12, 0]"] ;
271 -> 272 ;
273 [label="gini = 0.0\nsamples = 1\nvalue = [0, 0, 1]"] ;
271 -> 273 ;
274 [label="gini = 0.0\nsamples = 1\nvalue = [0, 0, 1]"] ;
270 -> 274 ;
275 [label="X[53] <= 0.448\ngini = 0.605\nsamples = 156\nvalue = [28, 46, 82]"] ;
265 -> 275 ;
276 [label="X[13] <= 0.017\ngini = 0.402\nsamples = 52\nvalue = [4, 9, 39]"] ;
275 -> 276 ;
277 [label="X[12] <= 0.729\ngini = 0.375\nsamples = 4\nvalue = [1, 3, 0]"] ;
276 -> 277 ;
278 [label="gini = 0.0\nsamples = 3\nvalue = [0, 3, 0]"] ;
277 -> 278 ;
279 [label="gini = 0.0\nsamples = 1\nvalue = [1, 0, 0]"] ;
277 -> 279 ;
280 [label="X[24] <= 0.907\ngini = 0.32\nsamples = 48\nvalue = [3, 6, 39]"] ;
276 -> 280 ;
281 [label="X[43] <= 0.702\ngini = 0.21\nsamples = 42\nvalue = [0, 5, 37]"] ;
280 -> 281 ;
282 [label="X[47] <= 0.069\ngini = 0.108\nsamples = 35\nvalue = [0, 2, 33]"] ;
281 -> 282 ;
283 [label="gini = 0.0\nsamples = 1\nvalue = [0, 1, 0]"] ;
282 -> 283 ;
284 [label="X[6] <= 0.144\ngini = 0.057\nsamples = 34\nvalue = [0, 1, 33]"] ;
282 -> 284 ;
285 [label="X[43] <= 0.387\ngini = 0.444\nsamples = 3\nvalue = [0, 1, 2]"] ;
284 -> 285 ;
286 [label="gini = 0.0\nsamples = 2\nvalue = [0, 0, 2]"] ;
285 -> 286 ;
287 [label="gini = 0.0\nsamples = 1\nvalue = [0, 1, 0]"] ;
285 -> 287 ;
288 [label="gini = 0.0\nsamples = 31\nvalue = [0, 0, 31]"] ;
284 -> 288 ;
289 [label="X[48] <= 0.526\ngini = 0.49\nsamples = 7\nvalue = [0, 3, 4]"] ;
281 -> 289 ;
290 [label="X[45] <= 0.586\ngini = 0.375\nsamples = 4\nvalue = [0, 3, 1]"] ;
289 -> 290 ;
291 [label="gini = 0.0\nsamples = 1\nvalue = [0, 0, 1]"] ;
290 -> 291 ;
292 [label="gini = 0.0\nsamples = 3\nvalue = [0, 3, 0]"] ;
290 -> 292 ;
293 [label="gini = 0.0\nsamples = 3\nvalue = [0, 0, 3]"] ;
289 -> 293 ;
294 [label="X[0] <= 0.45\ngini = 0.611\nsamples = 6\nvalue = [3, 1, 2]"] ;
280 -> 294 ;
295 [label="gini = 0.0\nsamples = 3\nvalue = [3, 0, 0]"] ;
294 -> 295 ;
296 [label="X[39] <= 0.679\ngini = 0.444\nsamples = 3\nvalue = [0, 1, 2]"] ;
294 -> 296 ;
297 [label="gini = 0.0\nsamples = 2\nvalue = [0, 0, 2]"] ;
296 -> 297 ;
298 [label="gini = 0.0\nsamples = 1\nvalue = [0, 1, 0]"] ;
296 -> 298 ;
299 [label="X[8] <= 0.876\ngini = 0.649\nsamples = 104\nvalue = [24, 37, 43]"] ;
275 -> 299 ;
300 [label="X[63] <= 0.361\ngini = 0.628\nsamples = 90\nvalue = [18, 29, 43]"] ;
299 -> 300 ;
301 [label="gini = 0.0\nsamples = 3\nvalue = [3, 0, 0]"] ;
300 -> 301 ;
302 [label="X[32] <= 0.304\ngini = 0.615\nsamples = 87\nvalue = [15, 29, 43]"] ;
300 -> 302 ;
303 [label="X[44] <= 0.416\ngini = 0.298\nsamples = 11\nvalue = [2, 0, 9]"] ;
302 -> 303 ;
304 [label="gini = 0.0\nsamples = 8\nvalue = [0, 0, 8]"] ;
303 -> 304 ;
305 [label="X[17] <= 0.557\ngini = 0.444\nsamples = 3\nvalue = [2, 0, 1]"] ;
303 -> 305 ;
306 [label="gini = 0.0\nsamples = 2\nvalue = [2, 0, 0]"] ;
305 -> 306 ;
307 [label="gini = 0.0\nsamples = 1\nvalue = [0, 0, 1]"] ;
305 -> 307 ;
308 [label="X[9] <= 0.14\ngini = 0.625\nsamples = 76\nvalue = [13, 29, 34]"] ;
302 -> 308 ;
309 [label="gini = 0.0\nsamples = 5\nvalue = [0, 5, 0]"] ;
308 -> 309 ;
310 [label="X[39] <= 0.065\ngini = 0.623\nsamples = 71\nvalue = [13, 24, 34]"] ;
308 -> 310 ;
311 [label="X[8] <= 0.684\ngini = 0.494\nsamples = 9\nvalue = [5, 0, 4]"] ;
310 -> 311 ;
312 [label="gini = 0.0\nsamples = 4\nvalue = [4, 0, 0]"] ;
311 -> 312 ;
313 [label="X[57] <= 0.986\ngini = 0.32\nsamples = 5\nvalue = [1, 0, 4]"] ;
311 -> 313 ;
314 [label="gini = 0.0\nsamples = 4\nvalue = [0, 0, 4]"] ;
313 -> 314 ;
315 [label="gini = 0.0\nsamples = 1\nvalue = [1, 0, 0]"] ;
313 -> 315 ;
316 [label="X[26] <= 0.035\ngini = 0.599\nsamples = 62\nvalue = [8, 24, 30]"] ;
310 -> 316 ;
317 [label="X[31] <= 0.898\ngini = 0.406\nsamples = 8\nvalue = [1, 6, 1]"] ;
316 -> 317 ;
318 [label="gini = 0.0\nsamples = 6\nvalue = [0, 6, 0]"] ;
317 -> 318 ;
319 [label="X[49] <= 0.736\ngini = 0.5\nsamples = 2\nvalue = [1, 0, 1]"] ;
317 -> 319 ;
320 [label="gini = 0.0\nsamples = 1\nvalue = [1, 0, 0]"] ;
319 -> 320 ;
321 [label="gini = 0.0\nsamples = 1\nvalue = [0, 0, 1]"] ;
319 -> 321 ;
322 [label="X[59] <= 0.625\ngini = 0.584\nsamples = 54\nvalue = [7, 18, 29]"] ;
316 -> 322 ;
323 [label="X[42] <= 0.417\ngini = 0.494\nsamples = 9\nvalue = [2, 6, 1]"] ;
322 -> 323 ;
324 [label="gini = 0.0\nsamples = 2\nvalue = [2, 0, 0]"] ;
323 -> 324 ;
325 [label="X[60] <= 0.505\ngini = 0.245\nsamples = 7\nvalue = [0, 6, 1]"] ;
323 -> 325 ;
326 [label="gini = 0.0\nsamples = 6\nvalue = [0, 6, 0]"] ;
325 -> 326 ;
327 [label="gini = 0.0\nsamples = 1\nvalue = [0, 0, 1]"] ;
325 -> 327 ;
328 [label="X[66] <= 0.446\ngini = 0.529\nsamples = 45\nvalue = [5, 12, 28]"] ;
322 -> 328 ;
329 [label="X[60] <= 0.545\ngini = 0.573\nsamples = 24\nvalue = [2, 11, 11]"] ;
328 -> 329 ;
330 [label="X[4] <= 0.133\ngini = 0.554\nsamples = 19\nvalue = [2, 11, 6]"] ;
329 -> 330 ;
331 [label="X[2] <= 0.482\ngini = 0.54\nsamples = 10\nvalue = [1, 3, 6]"] ;
330 -> 331 ;
332 [label="gini = 0.0\nsamples = 3\nvalue = [0, 3, 0]"] ;
331 -> 332 ;
333 [label="X[30] <= 0.041\ngini = 0.245\nsamples = 7\nvalue = [1, 0, 6]"] ;
331 -> 333 ;
334 [label="gini = 0.0\nsamples = 1\nvalue = [1, 0, 0]"] ;
333 -> 334 ;
335 [label="gini = 0.0\nsamples = 6\nvalue = [0, 0, 6]"] ;
333 -> 335 ;
336 [label="X[10] <= 0.882\ngini = 0.198\nsamples = 9\nvalue = [1, 8, 0]"] ;
330 -> 336 ;
337 [label="gini = 0.0\nsamples = 8\nvalue = [0, 8, 0]"] ;
336 -> 337 ;
338 [label="gini = 0.0\nsamples = 1\nvalue = [1, 0, 0]"] ;
336 -> 338 ;
339 [label="gini = 0.0\nsamples = 5\nvalue = [0, 0, 5]"] ;
329 -> 339 ;
340 [label="X[0] <= 0.207\ngini = 0.322\nsamples = 21\nvalue = [3, 1, 17]"] ;
328 -> 340 ;
341 [label="gini = 0.0\nsamples = 2\nvalue = [2, 0, 0]"] ;
340 -> 341 ;
342 [label="X[47] <= 0.2\ngini = 0.194\nsamples = 19\nvalue = [1, 1, 17]"] ;
340 -> 342 ;
343 [label="gini = 0.0\nsamples = 1\nvalue = [1, 0, 0]"] ;
342 -> 343 ;
344 [label="X[8] <= 0.855\ngini = 0.105\nsamples = 18\nvalue = [0, 1, 17]"] ;
342 -> 344 ;
345 [label="gini = 0.0\nsamples = 17\nvalue = [0, 0, 17]"] ;
344 -> 345 ;
346 [label="gini = 0.0\nsamples = 1\nvalue = [0, 1, 0]"] ;
344 -> 346 ;
347 [label="X[28] <= 0.826\ngini = 0.49\nsamples = 14\nvalue = [6, 8, 0]"] ;
299 -> 347 ;
348 [label="X[5] <= 0.345\ngini = 0.198\nsamples = 9\nvalue = [1, 8, 0]"] ;
347 -> 348 ;
349 [label="gini = 0.0\nsamples = 1\nvalue = [1, 0, 0]"] ;
348 -> 349 ;
350 [label="gini = 0.0\nsamples = 8\nvalue = [0, 8, 0]"] ;
348 -> 350 ;
351 [label="gini = 0.0\nsamples = 5\nvalue = [5, 0, 0]"] ;
347 -> 351 ;
352 [label="X[41] <= 0.128\ngini = 0.635\nsamples = 60\nvalue = [19, 28, 13]"] ;
264 -> 352 ;
353 [label="X[54] <= 0.337\ngini = 0.586\nsamples = 23\nvalue = [13, 5, 5]"] ;
352 -> 353 ;
354 [label="X[54] <= 0.241\ngini = 0.5\nsamples = 6\nvalue = [1, 1, 4]"] ;
353 -> 354 ;
355 [label="X[12] <= 0.458\ngini = 0.5\nsamples = 2\nvalue = [1, 1, 0]"] ;
354 -> 355 ;
356 [label="gini = 0.0\nsamples = 1\nvalue = [1, 0, 0]"] ;
355 -> 356 ;
357 [label="gini = 0.0\nsamples = 1\nvalue = [0, 1, 0]"] ;
355 -> 357 ;
358 [label="gini = 0.0\nsamples = 4\nvalue = [0, 0, 4]"] ;
354 -> 358 ;
359 [label="X[46] <= 0.431\ngini = 0.443\nsamples = 17\nvalue = [12, 4, 1]"] ;
353 -> 359 ;
360 [label="X[33] <= 0.422\ngini = 0.245\nsamples = 14\nvalue = [12, 2, 0]"] ;
359 -> 360 ;
361 [label="X[18] <= 0.269\ngini = 0.444\nsamples = 3\nvalue = [1, 2, 0]"] ;
360 -> 361 ;
362 [label="gini = 0.0\nsamples = 1\nvalue = [1, 0, 0]"] ;
361 -> 362 ;
363 [label="gini = 0.0\nsamples = 2\nvalue = [0, 2, 0]"] ;
361 -> 363 ;
364 [label="gini = 0.0\nsamples = 11\nvalue = [11, 0, 0]"] ;
360 -> 364 ;
365 [label="X[11] <= 0.741\ngini = 0.444\nsamples = 3\nvalue = [0, 2, 1]"] ;
359 -> 365 ;
366 [label="gini = 0.0\nsamples = 2\nvalue = [0, 2, 0]"] ;
365 -> 366 ;
367 [label="gini = 0.0\nsamples = 1\nvalue = [0, 0, 1]"] ;
365 -> 367 ;
368 [label="X[49] <= 0.146\ngini = 0.541\nsamples = 37\nvalue = [6, 23, 8]"] ;
352 -> 368 ;
369 [label="X[49] <= 0.127\ngini = 0.594\nsamples = 8\nvalue = [3, 1, 4]"] ;
368 -> 369 ;
370 [label="X[9] <= 0.247\ngini = 0.32\nsamples = 5\nvalue = [0, 1, 4]"] ;
369 -> 370 ;
371 [label="gini = 0.0\nsamples = 1\nvalue = [0, 1, 0]"] ;
370 -> 371 ;
372 [label="gini = 0.0\nsamples = 4\nvalue = [0, 0, 4]"] ;
370 -> 372 ;
373 [label="gini = 0.0\nsamples = 3\nvalue = [3, 0, 0]"] ;
369 -> 373 ;
374 [label="X[52] <= 0.054\ngini = 0.395\nsamples = 29\nvalue = [3, 22, 4]"] ;
368 -> 374 ;
375 [label="gini = 0.0\nsamples = 2\nvalue = [0, 0, 2]"] ;
374 -> 375 ;
376 [label="X[1] <= 0.597\ngini = 0.318\nsamples = 27\nvalue = [3, 22, 2]"] ;
374 -> 376 ;
377 [label="X[10] <= 0.804\ngini = 0.091\nsamples = 21\nvalue = [0, 20, 1]"] ;
376 -> 377 ;
378 [label="gini = 0.0\nsamples = 20\nvalue = [0, 20, 0]"] ;
377 -> 378 ;
379 [label="gini = 0.0\nsamples = 1\nvalue = [0, 0, 1]"] ;
377 -> 379 ;
380 [label="X[8] <= 0.48\ngini = 0.611\nsamples = 6\nvalue = [3, 2, 1]"] ;
376 -> 380 ;
381 [label="X[16] <= 0.614\ngini = 0.444\nsamples = 3\nvalue = [0, 2, 1]"] ;
380 -> 381 ;
382 [label="gini = 0.0\nsamples = 1\nvalue = [0, 0, 1]"] ;
381 -> 382 ;
383 [label="gini = 0.0\nsamples = 2\nvalue = [0, 2, 0]"] ;
381 -> 383 ;
384 [label="gini = 0.0\nsamples = 3\nvalue = [3, 0, 0]"] ;
380 -> 384 ;
385 [label="X[33] <= 0.227\ngini = 0.536\nsamples = 80\nvalue = [12, 50, 18]"] ;
263 -> 385 ;
386 [label="gini = 0.0\nsamples = 16\nvalue = [0, 16, 0]"] ;
385 -> 386 ;
387 [label="X[5] <= 0.432\ngini = 0.604\nsamples = 64\nvalue = [12, 34, 18]"] ;
385 -> 387 ;
388 [label="X[60] <= 0.304\ngini = 0.46\nsamples = 10\nvalue = [7, 2, 1]"] ;
387 -> 388 ;
389 [label="gini = 0.0\nsamples = 2\nvalue = [0, 2, 0]"] ;
388 -> 389 ;
390 [label="X[27] <= 0.402\ngini = 0.219\nsamples = 8\nvalue = [7, 0, 1]"] ;
388 -> 390 ;
391 [label="gini = 0.0\nsamples = 1\nvalue = [0, 0, 1]"] ;
390 -> 391 ;
392 [label="gini = 0.0\nsamples = 7\nvalue = [7, 0, 0]"] ;
390 -> 392 ;
393 [label="X[47] <= 0.853\ngini = 0.541\nsamples = 54\nvalue = [5, 32, 17]"] ;
387 -> 393 ;
394 [label="X[37] <= 0.008\ngini = 0.309\nsamples = 28\nvalue = [2, 23, 3]"] ;
393 -> 394 ;
395 [label="X[65] <= 0.932\ngini = 0.444\nsamples = 3\nvalue = [1, 0, 2]"] ;
394 -> 395 ;
396 [label="gini = 0.0\nsamples = 1\nvalue = [1, 0, 0]"] ;
395 -> 396 ;
397 [label="gini = 0.0\nsamples = 2\nvalue = [0, 0, 2]"] ;
395 -> 397 ;
398 [label="X[57] <= 0.655\ngini = 0.15\nsamples = 25\nvalue = [1, 23, 1]"] ;
394 -> 398 ;
399 [label="gini = 0.0\nsamples = 1\nvalue = [1, 0, 0]"] ;
398 -> 399 ;
400 [label="X[49] <= 0.998\ngini = 0.08\nsamples = 24\nvalue = [0, 23, 1]"] ;
398 -> 400 ;
401 [label="gini = 0.0\nsamples = 22\nvalue = [0, 22, 0]"] ;
400 -> 401 ;
402 [label="X[47] <= 0.796\ngini = 0.5\nsamples = 2\nvalue = [0, 1, 1]"] ;
400 -> 402 ;
403 [label="gini = 0.0\nsamples = 1\nvalue = [0, 0, 1]"] ;
402 -> 403 ;
404 [label="gini = 0.0\nsamples = 1\nvalue = [0, 1, 0]"] ;
402 -> 404 ;
405 [label="X[51] <= 0.882\ngini = 0.577\nsamples = 26\nvalue = [3, 9, 14]"] ;
393 -> 405 ;
406 [label="X[29] <= 0.154\ngini = 0.617\nsamples = 16\nvalue = [3, 8, 5]"] ;
405 -> 406 ;
407 [label="X[8] <= 0.701\ngini = 0.5\nsamples = 6\nvalue = [3, 0, 3]"] ;
406 -> 407 ;
408 [label="gini = 0.0\nsamples = 3\nvalue = [0, 0, 3]"] ;
407 -> 408 ;
409 [label="gini = 0.0\nsamples = 3\nvalue = [3, 0, 0]"] ;
407 -> 409 ;
410 [label="X[40] <= 0.846\ngini = 0.32\nsamples = 10\nvalue = [0, 8, 2]"] ;
406 -> 410 ;
411 [label="gini = 0.0\nsamples = 7\nvalue = [0, 7, 0]"] ;
410 -> 411 ;
412 [label="X[36] <= 0.671\ngini = 0.444\nsamples = 3\nvalue = [0, 1, 2]"] ;
410 -> 412 ;
413 [label="gini = 0.0\nsamples = 1\nvalue = [0, 1, 0]"] ;
412 -> 413 ;
414 [label="gini = 0.0\nsamples = 2\nvalue = [0, 0, 2]"] ;
412 -> 414 ;
415 [label="X[37] <= 0.167\ngini = 0.18\nsamples = 10\nvalue = [0, 1, 9]"] ;
405 -> 415 ;
416 [label="gini = 0.0\nsamples = 9\nvalue = [0, 0, 9]"] ;
415 -> 416 ;
417 [label="gini = 0.0\nsamples = 1\nvalue = [0, 1, 0]"] ;
415 -> 417 ;
418 [label="X[30] <= 0.03\ngini = 0.598\nsamples = 65\nvalue = [33, 23, 9]"] ;
168 -> 418 ;
419 [label="X[13] <= 0.294\ngini = 0.406\nsamples = 28\nvalue = [21, 4, 3]"] ;
418 -> 419 ;
420 [label="X[41] <= 0.438\ngini = 0.244\nsamples = 22\nvalue = [19, 2, 1]"] ;
419 -> 420 ;
421 [label="X[40] <= 0.669\ngini = 0.095\nsamples = 20\nvalue = [19, 1, 0]"] ;
420 -> 421 ;
422 [label="gini = 0.0\nsamples = 1\nvalue = [0, 1, 0]"] ;
421 -> 422 ;
423 [label="gini = 0.0\nsamples = 19\nvalue = [19, 0, 0]"] ;
421 -> 423 ;
424 [label="X[50] <= 0.418\ngini = 0.5\nsamples = 2\nvalue = [0, 1, 1]"] ;
420 -> 424 ;
425 [label="gini = 0.0\nsamples = 1\nvalue = [0, 0, 1]"] ;
424 -> 425 ;
426 [label="gini = 0.0\nsamples = 1\nvalue = [0, 1, 0]"] ;
424 -> 426 ;
427 [label="X[25] <= 0.696\ngini = 0.667\nsamples = 6\nvalue = [2, 2, 2]"] ;
419 -> 427 ;
428 [label="X[50] <= 0.478\ngini = 0.5\nsamples = 4\nvalue = [0, 2, 2]"] ;
427 -> 428 ;
429 [label="gini = 0.0\nsamples = 2\nvalue = [0, 0, 2]"] ;
428 -> 429 ;
430 [label="gini = 0.0\nsamples = 2\nvalue = [0, 2, 0]"] ;
428 -> 430 ;
431 [label="gini = 0.0\nsamples = 2\nvalue = [2, 0, 0]"] ;
427 -> 431 ;
432 [label="X[22] <= 0.541\ngini = 0.605\nsamples = 37\nvalue = [12, 19, 6]"] ;
418 -> 432 ;
433 [label="X[43] <= 0.263\ngini = 0.381\nsamples = 21\nvalue = [4, 16, 1]"] ;
432 -> 433 ;
434 [label="X[22] <= 0.244\ngini = 0.594\nsamples = 8\nvalue = [4, 3, 1]"] ;
433 -> 434 ;
435 [label="X[33] <= 0.605\ngini = 0.56\nsamples = 5\nvalue = [1, 3, 1]"] ;
434 -> 435 ;
436 [label="X[49] <= 0.4\ngini = 0.5\nsamples = 2\nvalue = [1, 0, 1]"] ;
435 -> 436 ;
437 [label="gini = 0.0\nsamples = 1\nvalue = [1, 0, 0]"] ;
436 -> 437 ;
438 [label="gini = 0.0\nsamples = 1\nvalue = [0, 0, 1]"] ;
436 -> 438 ;
439 [label="gini = 0.0\nsamples = 3\nvalue = [0, 3, 0]"] ;
435 -> 439 ;
440 [label="gini = 0.0\nsamples = 3\nvalue = [3, 0, 0]"] ;
434 -> 440 ;
441 [label="gini = 0.0\nsamples = 13\nvalue = [0, 13, 0]"] ;
433 -> 441 ;
442 [label="X[57] <= 0.991\ngini = 0.617\nsamples = 16\nvalue = [8, 3, 5]"] ;
432 -> 442 ;
443 [label="gini = 0.0\nsamples = 7\nvalue = [7, 0, 0]"] ;
442 -> 443 ;
444 [label="X[6] <= 0.785\ngini = 0.568\nsamples = 9\nvalue = [1, 3, 5]"] ;
442 -> 444 ;
445 [label="X[40] <= 0.551\ngini = 0.278\nsamples = 6\nvalue = [1, 0, 5]"] ;
444 -> 445 ;
446 [label="gini = 0.0\nsamples = 5\nvalue = [0, 0, 5]"] ;
445 -> 446 ;
447 [label="gini = 0.0\nsamples = 1\nvalue = [1, 0, 0]"] ;
445 -> 447 ;
448 [label="gini = 0.0\nsamples = 3\nvalue = [0, 3, 0]"] ;
444 -> 448 ;
449 [label="X[11] <= 0.802\ngini = 0.606\nsamples = 64\nvalue = [34, 17, 13]"] ;
167 -> 449 ;
450 [label="X[33] <= 0.611\ngini = 0.662\nsamples = 36\nvalue = [11, 14, 11]"] ;
449 -> 450 ;
451 [label="X[28] <= 0.38\ngini = 0.545\nsamples = 20\nvalue = [1, 10, 9]"] ;
450 -> 451 ;
452 [label="X[9] <= 0.807\ngini = 0.375\nsamples = 12\nvalue = [0, 3, 9]"] ;
451 -> 452 ;
453 [label="gini = 0.0\nsamples = 8\nvalue = [0, 0, 8]"] ;
452 -> 453 ;
454 [label="X[54] <= 0.596\ngini = 0.375\nsamples = 4\nvalue = [0, 3, 1]"] ;
452 -> 454 ;
455 [label="gini = 0.0\nsamples = 3\nvalue = [0, 3, 0]"] ;
454 -> 455 ;
456 [label="gini = 0.0\nsamples = 1\nvalue = [0, 0, 1]"] ;
454 -> 456 ;
457 [label="X[40] <= 0.011\ngini = 0.219\nsamples = 8\nvalue = [1, 7, 0]"] ;
451 -> 457 ;
458 [label="gini = 0.0\nsamples = 7\nvalue = [0, 7, 0]"] ;
457 -> 458 ;
459 [label="gini = 0.0\nsamples = 1\nvalue = [1, 0, 0]"] ;
457 -> 459 ;
460 [label="X[1] <= 0.594\ngini = 0.531\nsamples = 16\nvalue = [10, 4, 2]"] ;
450 -> 460 ;
461 [label="X[53] <= 0.567\ngini = 0.379\nsamples = 13\nvalue = [10, 1, 2]"] ;
460 -> 461 ;
462 [label="X[6] <= 0.939\ngini = 0.165\nsamples = 11\nvalue = [10, 1, 0]"] ;
461 -> 462 ;
463 [label="gini = 0.0\nsamples = 10\nvalue = [10, 0, 0]"] ;
462 -> 463 ;
464 [label="gini = 0.0\nsamples = 1\nvalue = [0, 1, 0]"] ;
462 -> 464 ;
465 [label="gini = 0.0\nsamples = 2\nvalue = [0, 0, 2]"] ;
461 -> 465 ;
466 [label="gini = 0.0\nsamples = 3\nvalue = [0, 3, 0]"] ;
460 -> 466 ;
467 [label="X[31] <= 0.003\ngini = 0.309\nsamples = 28\nvalue = [23, 3, 2]"] ;
449 -> 467 ;
468 [label="X[29] <= 0.103\ngini = 0.642\nsamples = 9\nvalue = [4, 3, 2]"] ;
467 -> 468 ;
469 [label="gini = 0.0\nsamples = 2\nvalue = [0, 0, 2]"] ;
468 -> 469 ;
470 [label="X[19] <= 0.29\ngini = 0.49\nsamples = 7\nvalue = [4, 3, 0]"] ;
468 -> 470 ;
471 [label="X[32] <= 0.839\ngini = 0.375\nsamples = 4\nvalue = [1, 3, 0]"] ;
470 -> 471 ;
472 [label="gini = 0.0\nsamples = 3\nvalue = [0, 3, 0]"] ;
471 -> 472 ;
473 [label="gini = 0.0\nsamples = 1\nvalue = [1, 0, 0]"] ;
471 -> 473 ;
474 [label="gini = 0.0\nsamples = 3\nvalue = [3, 0, 0]"] ;
470 -> 474 ;
475 [label="gini = 0.0\nsamples = 19\nvalue = [19, 0, 0]"] ;
467 -> 475 ;
476 [label="X[6] <= 0.925\ngini = 0.498\nsamples = 927\nvalue = [146, 620, 161]"] ;
0 -> 476 [labeldistance=2.5, labelangle=-45, headlabel="False"] ;
477 [label="X[32] <= 0.809\ngini = 0.619\nsamples = 349\nvalue = [75, 177, 97]"] ;
476 -> 477 ;
478 [label="X[9] <= 0.999\ngini = 0.646\nsamples = 250\nvalue = [64, 112, 74]"] ;
477 -> 478 ;
479 [label="X[12] <= 0.242\ngini = 0.642\nsamples = 243\nvalue = [63, 112, 68]"] ;
478 -> 479 ;
480 [label="X[27] <= 0.692\ngini = 0.278\nsamples = 6\nvalue = [5, 0, 1]"] ;
479 -> 480 ;
481 [label="gini = 0.0\nsamples = 5\nvalue = [5, 0, 0]"] ;
480 -> 481 ;
482 [label="gini = 0.0\nsamples = 1\nvalue = [0, 0, 1]"] ;
480 -> 482 ;
483 [label="X[36] <= 0.006\ngini = 0.637\nsamples = 237\nvalue = [58, 112, 67]"] ;
479 -> 483 ;
484 [label="X[1] <= 0.775\ngini = 0.46\nsamples = 10\nvalue = [7, 2, 1]"] ;
483 -> 484 ;
485 [label="X[44] <= 0.389\ngini = 0.625\nsamples = 4\nvalue = [1, 2, 1]"] ;
484 -> 485 ;
486 [label="gini = 0.0\nsamples = 2\nvalue = [0, 2, 0]"] ;
485 -> 486 ;
487 [label="X[40] <= 0.891\ngini = 0.5\nsamples = 2\nvalue = [1, 0, 1]"] ;
485 -> 487 ;
488 [label="gini = 0.0\nsamples = 1\nvalue = [0, 0, 1]"] ;
487 -> 488 ;
489 [label="gini = 0.0\nsamples = 1\nvalue = [1, 0, 0]"] ;
487 -> 489 ;
490 [label="gini = 0.0\nsamples = 6\nvalue = [6, 0, 0]"] ;
484 -> 490 ;
491 [label="X[55] <= 0.676\ngini = 0.63\nsamples = 227\nvalue = [51, 110, 66]"] ;
483 -> 491 ;
492 [label="X[23] <= 0.966\ngini = 0.591\nsamples = 142\nvalue = [28, 79, 35]"] ;
491 -> 492 ;
493 [label="X[7] <= 0.383\ngini = 0.599\nsamples = 95\nvalue = [14, 49, 32]"] ;
492 -> 493 ;
494 [label="X[16] <= 0.54\ngini = 0.5\nsamples = 45\nvalue = [7, 30, 8]"] ;
493 -> 494 ;
495 [label="gini = 0.0\nsamples = 2\nvalue = [2, 0, 0]"] ;
494 -> 495 ;
496 [label="X[45] <= 0.484\ngini = 0.465\nsamples = 43\nvalue = [5, 30, 8]"] ;
494 -> 496 ;
497 [label="X[8] <= 0.36\ngini = 0.226\nsamples = 24\nvalue = [1, 21, 2]"] ;
496 -> 497 ;
498 [label="X[58] <= 0.935\ngini = 0.444\nsamples = 3\nvalue = [0, 1, 2]"] ;
497 -> 498 ;
499 [label="gini = 0.0\nsamples = 2\nvalue = [0, 0, 2]"] ;
498 -> 499 ;
500 [label="gini = 0.0\nsamples = 1\nvalue = [0, 1, 0]"] ;
498 -> 500 ;
501 [label="X[0] <= 0.947\ngini = 0.091\nsamples = 21\nvalue = [1, 20, 0]"] ;
497 -> 501 ;
502 [label="gini = 0.0\nsamples = 19\nvalue = [0, 19, 0]"] ;
501 -> 502 ;
503 [label="X[45] <= 0.242\ngini = 0.5\nsamples = 2\nvalue = [1, 1, 0]"] ;
501 -> 503 ;
504 [label="gini = 0.0\nsamples = 1\nvalue = [1, 0, 0]"] ;
503 -> 504 ;
505 [label="gini = 0.0\nsamples = 1\nvalue = [0, 1, 0]"] ;
503 -> 505 ;
506 [label="X[3] <= 0.837\ngini = 0.632\nsamples = 19\nvalue = [4, 9, 6]"] ;
496 -> 506 ;
507 [label="X[9] <= 0.515\ngini = 0.571\nsamples = 14\nvalue = [4, 8, 2]"] ;
506 -> 507 ;
508 [label="X[43] <= 0.713\ngini = 0.571\nsamples = 7\nvalue = [4, 2, 1]"] ;
507 -> 508 ;
509 [label="gini = 0.0\nsamples = 4\nvalue = [4, 0, 0]"] ;
508 -> 509 ;
510 [label="X[27] <= 0.378\ngini = 0.444\nsamples = 3\nvalue = [0, 2, 1]"] ;
508 -> 510 ;
511 [label="gini = 0.0\nsamples = 2\nvalue = [0, 2, 0]"] ;
510 -> 511 ;
512 [label="gini = 0.0\nsamples = 1\nvalue = [0, 0, 1]"] ;
510 -> 512 ;
513 [label="X[47] <= 0.571\ngini = 0.245\nsamples = 7\nvalue = [0, 6, 1]"] ;
507 -> 513 ;
514 [label="gini = 0.0\nsamples = 6\nvalue = [0, 6, 0]"] ;
513 -> 514 ;
515 [label="gini = 0.0\nsamples = 1\nvalue = [0, 0, 1]"] ;
513 -> 515 ;
516 [label="X[64] <= 0.806\ngini = 0.32\nsamples = 5\nvalue = [0, 1, 4]"] ;
506 -> 516 ;
517 [label="gini = 0.0\nsamples = 1\nvalue = [0, 1, 0]"] ;
516 -> 517 ;
518 [label="gini = 0.0\nsamples = 4\nvalue = [0, 0, 4]"] ;
516 -> 518 ;
519 [label="X[31] <= 0.785\ngini = 0.606\nsamples = 50\nvalue = [7, 19, 24]"] ;
493 -> 519 ;
520 [label="X[2] <= 0.949\ngini = 0.556\nsamples = 45\nvalue = [3, 19, 23]"] ;
519 -> 520 ;
521 [label="X[44] <= 0.399\ngini = 0.541\nsamples = 40\nvalue = [3, 14, 23]"] ;
520 -> 521 ;
522 [label="gini = 0.0\nsamples = 5\nvalue = [0, 5, 0]"] ;
521 -> 522 ;
523 [label="X[17] <= 0.672\ngini = 0.495\nsamples = 35\nvalue = [3, 9, 23]"] ;
521 -> 523 ;
524 [label="X[28] <= 0.351\ngini = 0.645\nsamples = 11\nvalue = [3, 5, 3]"] ;
523 -> 524 ;
525 [label="gini = 0.0\nsamples = 3\nvalue = [3, 0, 0]"] ;
524 -> 525 ;
526 [label="X[32] <= 0.59\ngini = 0.469\nsamples = 8\nvalue = [0, 5, 3]"] ;
524 -> 526 ;
527 [label="X[3] <= 0.735\ngini = 0.375\nsamples = 4\nvalue = [0, 1, 3]"] ;
526 -> 527 ;
528 [label="gini = 0.0\nsamples = 3\nvalue = [0, 0, 3]"] ;
527 -> 528 ;
529 [label="gini = 0.0\nsamples = 1\nvalue = [0, 1, 0]"] ;
527 -> 529 ;
530 [label="gini = 0.0\nsamples = 4\nvalue = [0, 4, 0]"] ;
526 -> 530 ;
531 [label="X[23] <= 0.858\ngini = 0.278\nsamples = 24\nvalue = [0, 4, 20]"] ;
523 -> 531 ;
532 [label="gini = 0.0\nsamples = 15\nvalue = [0, 0, 15]"] ;
531 -> 532 ;
533 [label="X[34] <= 0.844\ngini = 0.494\nsamples = 9\nvalue = [0, 4, 5]"] ;
531 -> 533 ;
534 [label="gini = 0.0\nsamples = 4\nvalue = [0, 4, 0]"] ;
533 -> 534 ;
535 [label="gini = 0.0\nsamples = 5\nvalue = [0, 0, 5]"] ;
533 -> 535 ;
536 [label="gini = 0.0\nsamples = 5\nvalue = [0, 5, 0]"] ;
520 -> 536 ;
537 [label="X[23] <= 0.85\ngini = 0.32\nsamples = 5\nvalue = [4, 0, 1]"] ;
519 -> 537 ;
538 [label="gini = 0.0\nsamples = 4\nvalue = [4, 0, 0]"] ;
537 -> 538 ;
539 [label="gini = 0.0\nsamples = 1\nvalue = [0, 0, 1]"] ;
537 -> 539 ;
540 [label="X[29] <= 0.392\ngini = 0.5\nsamples = 47\nvalue = [14, 30, 3]"] ;
492 -> 540 ;
541 [label="X[5] <= 0.592\ngini = 0.476\nsamples = 23\nvalue = [14, 9, 0]"] ;
540 -> 541 ;
542 [label="X[51] <= 0.855\ngini = 0.388\nsamples = 19\nvalue = [14, 5, 0]"] ;
541 -> 542 ;
543 [label="X[27] <= 0.626\ngini = 0.469\nsamples = 8\nvalue = [3, 5, 0]"] ;
542 -> 543 ;
544 [label="gini = 0.0\nsamples = 4\nvalue = [0, 4, 0]"] ;
543 -> 544 ;
545 [label="X[48] <= 0.343\ngini = 0.375\nsamples = 4\nvalue = [3, 1, 0]"] ;
543 -> 545 ;
546 [label="gini = 0.0\nsamples = 1\nvalue = [0, 1, 0]"] ;
545 -> 546 ;
547 [label="gini = 0.0\nsamples = 3\nvalue = [3, 0, 0]"] ;
545 -> 547 ;
548 [label="gini = 0.0\nsamples = 11\nvalue = [11, 0, 0]"] ;
542 -> 548 ;
549 [label="gini = 0.0\nsamples = 4\nvalue = [0, 4, 0]"] ;
541 -> 549 ;
550 [label="X[36] <= 0.4\ngini = 0.219\nsamples = 24\nvalue = [0, 21, 3]"] ;
540 -> 550 ;
551 [label="X[33] <= 0.341\ngini = 0.444\nsamples = 3\nvalue = [0, 1, 2]"] ;
550 -> 551 ;
552 [label="gini = 0.0\nsamples = 1\nvalue = [0, 1, 0]"] ;
551 -> 552 ;
553 [label="gini = 0.0\nsamples = 2\nvalue = [0, 0, 2]"] ;
551 -> 553 ;
554 [label="X[61] <= 0.653\ngini = 0.091\nsamples = 21\nvalue = [0, 20, 1]"] ;
550 -> 554 ;
555 [label="gini = 0.0\nsamples = 1\nvalue = [0, 0, 1]"] ;
554 -> 555 ;
556 [label="gini = 0.0\nsamples = 20\nvalue = [0, 20, 0]"] ;
554 -> 556 ;
557 [label="X[45] <= 0.652\ngini = 0.661\nsamples = 85\nvalue = [23, 31, 31]"] ;
491 -> 557 ;
558 [label="X[6] <= 0.913\ngini = 0.649\nsamples = 68\nvalue = [18, 30, 20]"] ;
557 -> 558 ;
559 [label="X[4] <= 0.55\ngini = 0.624\nsamples = 58\nvalue = [16, 29, 13]"] ;
558 -> 559 ;
560 [label="X[42] <= 0.375\ngini = 0.662\nsamples = 42\nvalue = [14, 16, 12]"] ;
559 -> 560 ;
561 [label="X[53] <= 0.78\ngini = 0.633\nsamples = 32\nvalue = [6, 14, 12]"] ;
560 -> 561 ;
562 [label="X[66] <= 0.123\ngini = 0.585\nsamples = 29\nvalue = [3, 14, 12]"] ;
561 -> 562 ;
563 [label="X[29] <= 0.288\ngini = 0.245\nsamples = 7\nvalue = [1, 6, 0]"] ;
562 -> 563 ;
564 [label="gini = 0.0\nsamples = 6\nvalue = [0, 6, 0]"] ;
563 -> 564 ;
565 [label="gini = 0.0\nsamples = 1\nvalue = [1, 0, 0]"] ;
563 -> 565 ;
566 [label="X[36] <= 0.678\ngini = 0.562\nsamples = 22\nvalue = [2, 8, 12]"] ;
562 -> 566 ;
567 [label="X[27] <= 0.365\ngini = 0.314\nsamples = 11\nvalue = [1, 1, 9]"] ;
566 -> 567 ;
568 [label="gini = 0.0\nsamples = 1\nvalue = [0, 1, 0]"] ;
567 -> 568 ;
569 [label="X[18] <= 0.997\ngini = 0.18\nsamples = 10\nvalue = [1, 0, 9]"] ;
567 -> 569 ;
570 [label="gini = 0.0\nsamples = 9\nvalue = [0, 0, 9]"] ;
569 -> 570 ;
571 [label="gini = 0.0\nsamples = 1\nvalue = [1, 0, 0]"] ;
569 -> 571 ;
572 [label="X[63] <= 0.997\ngini = 0.512\nsamples = 11\nvalue = [1, 7, 3]"] ;
566 -> 572 ;
573 [label="X[52] <= 0.669\ngini = 0.219\nsamples = 8\nvalue = [0, 7, 1]"] ;
572 -> 573 ;
574 [label="gini = 0.0\nsamples = 7\nvalue = [0, 7, 0]"] ;
573 -> 574 ;
575 [label="gini = 0.0\nsamples = 1\nvalue = [0, 0, 1]"] ;
573 -> 575 ;
576 [label="X[66] <= 0.27\ngini = 0.444\nsamples = 3\nvalue = [1, 0, 2]"] ;
572 -> 576 ;
577 [label="gini = 0.0\nsamples = 1\nvalue = [1, 0, 0]"] ;
576 -> 577 ;
578 [label="gini = 0.0\nsamples = 2\nvalue = [0, 0, 2]"] ;
576 -> 578 ;
579 [label="gini = 0.0\nsamples = 3\nvalue = [3, 0, 0]"] ;
561 -> 579 ;
580 [label="X[2] <= 0.825\ngini = 0.32\nsamples = 10\nvalue = [8, 2, 0]"] ;
560 -> 580 ;
581 [label="gini = 0.0\nsamples = 7\nvalue = [7, 0, 0]"] ;
580 -> 581 ;
582 [label="X[37] <= 0.991\ngini = 0.444\nsamples = 3\nvalue = [1, 2, 0]"] ;
580 -> 582 ;
583 [label="gini = 0.0\nsamples = 2\nvalue = [0, 2, 0]"] ;
582 -> 583 ;
584 [label="gini = 0.0\nsamples = 1\nvalue = [1, 0, 0]"] ;
582 -> 584 ;
585 [label="X[29] <= 0.126\ngini = 0.32\nsamples = 16\nvalue = [2, 13, 1]"] ;
559 -> 585 ;
586 [label="X[26] <= 0.999\ngini = 0.625\nsamples = 4\nvalue = [2, 1, 1]"] ;
585 -> 586 ;
587 [label="X[11] <= 0.996\ngini = 0.5\nsamples = 2\nvalue = [0, 1, 1]"] ;
586 -> 587 ;
588 [label="gini = 0.0\nsamples = 1\nvalue = [0, 1, 0]"] ;
587 -> 588 ;
589 [label="gini = 0.0\nsamples = 1\nvalue = [0, 0, 1]"] ;
587 -> 589 ;
590 [label="gini = 0.0\nsamples = 2\nvalue = [2, 0, 0]"] ;
586 -> 590 ;
591 [label="gini = 0.0\nsamples = 12\nvalue = [0, 12, 0]"] ;
585 -> 591 ;
592 [label="X[22] <= 0.719\ngini = 0.46\nsamples = 10\nvalue = [2, 1, 7]"] ;
558 -> 592 ;
593 [label="gini = 0.0\nsamples = 7\nvalue = [0, 0, 7]"] ;
592 -> 593 ;
594 [label="X[35] <= 0.873\ngini = 0.444\nsamples = 3\nvalue = [2, 1, 0]"] ;
592 -> 594 ;
595 [label="gini = 0.0\nsamples = 1\nvalue = [0, 1, 0]"] ;
594 -> 595 ;
596 [label="gini = 0.0\nsamples = 2\nvalue = [2, 0, 0]"] ;
594 -> 596 ;
597 [label="X[62] <= 0.721\ngini = 0.491\nsamples = 17\nvalue = [5, 1, 11]"] ;
557 -> 597 ;
598 [label="gini = 0.0\nsamples = 3\nvalue = [3, 0, 0]"] ;
597 -> 598 ;
599 [label="X[10] <= 0.527\ngini = 0.357\nsamples = 14\nvalue = [2, 1, 11]"] ;
597 -> 599 ;
600 [label="gini = 0.0\nsamples = 9\nvalue = [0, 0, 9]"] ;
599 -> 600 ;
601 [label="X[10] <= 0.602\ngini = 0.64\nsamples = 5\nvalue = [2, 1, 2]"] ;
599 -> 601 ;
602 [label="gini = 0.0\nsamples = 2\nvalue = [2, 0, 0]"] ;
601 -> 602 ;
603 [label="X[23] <= 0.582\ngini = 0.444\nsamples = 3\nvalue = [0, 1, 2]"] ;
601 -> 603 ;
604 [label="gini = 0.0\nsamples = 1\nvalue = [0, 1, 0]"] ;
603 -> 604 ;
605 [label="gini = 0.0\nsamples = 2\nvalue = [0, 0, 2]"] ;
603 -> 605 ;
606 [label="X[54] <= 0.704\ngini = 0.245\nsamples = 7\nvalue = [1, 0, 6]"] ;
478 -> 606 ;
607 [label="gini = 0.0\nsamples = 1\nvalue = [1, 0, 0]"] ;
606 -> 607 ;
608 [label="gini = 0.0\nsamples = 6\nvalue = [0, 0, 6]"] ;
606 -> 608 ;
609 [label="X[45] <= 0.861\ngini = 0.503\nsamples = 99\nvalue = [11, 65, 23]"] ;
477 -> 609 ;
610 [label="X[31] <= 0.117\ngini = 0.407\nsamples = 71\nvalue = [6, 53, 12]"] ;
609 -> 610 ;
611 [label="X[48] <= 0.885\ngini = 0.587\nsamples = 19\nvalue = [2, 9, 8]"] ;
610 -> 611 ;
612 [label="X[20] <= 0.348\ngini = 0.245\nsamples = 7\nvalue = [0, 1, 6]"] ;
611 -> 612 ;
613 [label="gini = 0.0\nsamples = 1\nvalue = [0, 1, 0]"] ;
612 -> 613 ;
614 [label="gini = 0.0\nsamples = 6\nvalue = [0, 0, 6]"] ;
612 -> 614 ;
615 [label="X[31] <= 0.049\ngini = 0.5\nsamples = 12\nvalue = [2, 8, 2]"] ;
611 -> 615 ;
616 [label="X[45] <= 0.642\ngini = 0.32\nsamples = 10\nvalue = [2, 8, 0]"] ;
615 -> 616 ;
617 [label="X[48] <= 0.969\ngini = 0.444\nsamples = 3\nvalue = [2, 1, 0]"] ;
616 -> 617 ;
618 [label="gini = 0.0\nsamples = 2\nvalue = [2, 0, 0]"] ;
617 -> 618 ;
619 [label="gini = 0.0\nsamples = 1\nvalue = [0, 1, 0]"] ;
617 -> 619 ;
620 [label="gini = 0.0\nsamples = 7\nvalue = [0, 7, 0]"] ;
616 -> 620 ;
621 [label="gini = 0.0\nsamples = 2\nvalue = [0, 0, 2]"] ;
615 -> 621 ;
622 [label="X[9] <= 0.566\ngini = 0.272\nsamples = 52\nvalue = [4, 44, 4]"] ;
610 -> 622 ;
623 [label="X[38] <= 0.565\ngini = 0.667\nsamples = 6\nvalue = [2, 2, 2]"] ;
622 -> 623 ;
624 [label="gini = 0.0\nsamples = 2\nvalue = [0, 0, 2]"] ;
623 -> 624 ;
625 [label="X[27] <= 0.527\ngini = 0.5\nsamples = 4\nvalue = [2, 2, 0]"] ;
623 -> 625 ;
626 [label="gini = 0.0\nsamples = 2\nvalue = [0, 2, 0]"] ;
625 -> 626 ;
627 [label="gini = 0.0\nsamples = 2\nvalue = [2, 0, 0]"] ;
625 -> 627 ;
628 [label="X[11] <= 0.155\ngini = 0.163\nsamples = 46\nvalue = [2, 42, 2]"] ;
622 -> 628 ;
629 [label="gini = 0.0\nsamples = 1\nvalue = [1, 0, 0]"] ;
628 -> 629 ;
630 [label="X[52] <= 0.354\ngini = 0.126\nsamples = 45\nvalue = [1, 42, 2]"] ;
628 -> 630 ;
631 [label="gini = 0.0\nsamples = 1\nvalue = [1, 0, 0]"] ;
630 -> 631 ;
632 [label="X[36] <= 0.289\ngini = 0.087\nsamples = 44\nvalue = [0, 42, 2]"] ;
630 -> 632 ;
633 [label="gini = 0.0\nsamples = 1\nvalue = [0, 0, 1]"] ;
632 -> 633 ;
634 [label="X[60] <= 0.095\ngini = 0.045\nsamples = 43\nvalue = [0, 42, 1]"] ;
632 -> 634 ;
635 [label="X[25] <= 0.862\ngini = 0.5\nsamples = 2\nvalue = [0, 1, 1]"] ;
634 -> 635 ;
636 [label="gini = 0.0\nsamples = 1\nvalue = [0, 0, 1]"] ;
635 -> 636 ;
637 [label="gini = 0.0\nsamples = 1\nvalue = [0, 1, 0]"] ;
635 -> 637 ;
638 [label="gini = 0.0\nsamples = 41\nvalue = [0, 41, 0]"] ;
634 -> 638 ;
639 [label="X[3] <= 0.699\ngini = 0.63\nsamples = 28\nvalue = [5, 12, 11]"] ;
609 -> 639 ;
640 [label="gini = 0.0\nsamples = 5\nvalue = [0, 5, 0]"] ;
639 -> 640 ;
641 [label="X[27] <= 0.868\ngini = 0.631\nsamples = 23\nvalue = [5, 7, 11]"] ;
639 -> 641 ;
642 [label="X[0] <= 0.83\ngini = 0.639\nsamples = 13\nvalue = [4, 6, 3]"] ;
641 -> 642 ;
643 [label="X[10] <= 0.688\ngini = 0.48\nsamples = 5\nvalue = [3, 0, 2]"] ;
642 -> 643 ;
644 [label="gini = 0.0\nsamples = 3\nvalue = [3, 0, 0]"] ;
643 -> 644 ;
645 [label="gini = 0.0\nsamples = 2\nvalue = [0, 0, 2]"] ;
643 -> 645 ;
646 [label="X[42] <= 0.413\ngini = 0.406\nsamples = 8\nvalue = [1, 6, 1]"] ;
642 -> 646 ;
647 [label="gini = 0.0\nsamples = 6\nvalue = [0, 6, 0]"] ;
646 -> 647 ;
648 [label="X[63] <= 0.992\ngini = 0.5\nsamples = 2\nvalue = [1, 0, 1]"] ;
646 -> 648 ;
649 [label="gini = 0.0\nsamples = 1\nvalue = [1, 0, 0]"] ;
648 -> 649 ;
650 [label="gini = 0.0\nsamples = 1\nvalue = [0, 0, 1]"] ;
648 -> 650 ;
651 [label="X[4] <= 0.856\ngini = 0.34\nsamples = 10\nvalue = [1, 1, 8]"] ;
641 -> 651 ;
652 [label="X[33] <= 0.11\ngini = 0.198\nsamples = 9\nvalue = [0, 1, 8]"] ;
651 -> 652 ;
653 [label="gini = 0.0\nsamples = 1\nvalue = [0, 1, 0]"] ;
652 -> 653 ;
654 [label="gini = 0.0\nsamples = 8\nvalue = [0, 0, 8]"] ;
652 -> 654 ;
655 [label="gini = 0.0\nsamples = 1\nvalue = [1, 0, 0]"] ;
651 -> 655 ;
656 [label="X[47] <= 0.295\ngini = 0.385\nsamples = 578\nvalue = [71, 443, 64]"] ;
476 -> 656 ;
657 [label="X[45] <= 0.1\ngini = 0.617\nsamples = 43\nvalue = [12, 22, 9]"] ;
656 -> 657 ;
658 [label="gini = 0.0\nsamples = 3\nvalue = [0, 0, 3]"] ;
657 -> 658 ;
659 [label="X[47] <= 0.283\ngini = 0.585\nsamples = 40\nvalue = [12, 22, 6]"] ;
657 -> 659 ;
660 [label="X[6] <= 0.996\ngini = 0.526\nsamples = 36\nvalue = [11, 22, 3]"] ;
659 -> 660 ;
661 [label="X[44] <= 0.488\ngini = 0.476\nsamples = 34\nvalue = [11, 22, 1]"] ;
660 -> 661 ;
662 [label="X[51] <= 0.539\ngini = 0.534\nsamples = 25\nvalue = [11, 13, 1]"] ;
661 -> 662 ;
663 [label="X[6] <= 0.955\ngini = 0.508\nsamples = 16\nvalue = [10, 5, 1]"] ;
662 -> 663 ;
664 [label="X[54] <= 0.684\ngini = 0.198\nsamples = 9\nvalue = [8, 0, 1]"] ;
663 -> 664 ;
665 [label="gini = 0.0\nsamples = 1\nvalue = [0, 0, 1]"] ;
664 -> 665 ;
666 [label="gini = 0.0\nsamples = 8\nvalue = [8, 0, 0]"] ;
664 -> 666 ;
667 [label="X[49] <= 0.052\ngini = 0.408\nsamples = 7\nvalue = [2, 5, 0]"] ;
663 -> 667 ;
668 [label="gini = 0.0\nsamples = 2\nvalue = [2, 0, 0]"] ;
667 -> 668 ;
669 [label="gini = 0.0\nsamples = 5\nvalue = [0, 5, 0]"] ;
667 -> 669 ;
670 [label="X[54] <= 0.661\ngini = 0.198\nsamples = 9\nvalue = [1, 8, 0]"] ;
662 -> 670 ;
671 [label="gini = 0.0\nsamples = 1\nvalue = [1, 0, 0]"] ;
670 -> 671 ;
672 [label="gini = 0.0\nsamples = 8\nvalue = [0, 8, 0]"] ;
670 -> 672 ;
673 [label="gini = 0.0\nsamples = 9\nvalue = [0, 9, 0]"] ;
661 -> 673 ;
674 [label="gini = 0.0\nsamples = 2\nvalue = [0, 0, 2]"] ;
660 -> 674 ;
675 [label="X[1] <= 0.891\ngini = 0.375\nsamples = 4\nvalue = [1, 0, 3]"] ;
659 -> 675 ;
676 [label="gini = 0.0\nsamples = 3\nvalue = [0, 0, 3]"] ;
675 -> 676 ;
677 [label="gini = 0.0\nsamples = 1\nvalue = [1, 0, 0]"] ;
675 -> 677 ;
678 [label="X[66] <= 0.042\ngini = 0.358\nsamples = 535\nvalue = [59, 421, 55]"] ;
656 -> 678 ;
679 [label="gini = 0.0\nsamples = 3\nvalue = [0, 0, 3]"] ;
678 -> 679 ;
680 [label="X[12] <= 0.104\ngini = 0.352\nsamples = 532\nvalue = [59, 421, 52]"] ;
678 -> 680 ;
681 [label="gini = 0.0\nsamples = 3\nvalue = [0, 0, 3]"] ;
680 -> 681 ;
682 [label="X[37] <= 0.169\ngini = 0.346\nsamples = 529\nvalue = [59, 421, 49]"] ;
680 -> 682 ;
683 [label="X[17] <= 0.319\ngini = 0.444\nsamples = 3\nvalue = [1, 0, 2]"] ;
682 -> 683 ;
684 [label="gini = 0.0\nsamples = 2\nvalue = [0, 0, 2]"] ;
683 -> 684 ;
685 [label="gini = 0.0\nsamples = 1\nvalue = [1, 0, 0]"] ;
683 -> 685 ;
686 [label="X[11] <= 0.283\ngini = 0.339\nsamples = 526\nvalue = [58, 421, 47]"] ;
682 -> 686 ;
687 [label="gini = 0.0\nsamples = 2\nvalue = [2, 0, 0]"] ;
686 -> 687 ;
688 [label="X[6] <= 1.0\ngini = 0.335\nsamples = 524\nvalue = [56, 421, 47]"] ;
686 -> 688 ;
689 [label="X[14] <= 0.054\ngini = 0.291\nsamples = 396\nvalue = [39, 330, 27]"] ;
688 -> 689 ;
690 [label="X[33] <= 0.278\ngini = 0.444\nsamples = 3\nvalue = [0, 1, 2]"] ;
689 -> 690 ;
691 [label="gini = 0.0\nsamples = 2\nvalue = [0, 0, 2]"] ;
690 -> 691 ;
692 [label="gini = 0.0\nsamples = 1\nvalue = [0, 1, 0]"] ;
690 -> 692 ;
693 [label="X[11] <= 0.488\ngini = 0.285\nsamples = 393\nvalue = [39, 329, 25]"] ;
689 -> 693 ;
694 [label="gini = 0.0\nsamples = 1\nvalue = [0, 0, 1]"] ;
693 -> 694 ;
695 [label="X[48] <= 0.92\ngini = 0.282\nsamples = 392\nvalue = [39, 329, 24]"] ;
693 -> 695 ;
696 [label="X[43] <= 0.99\ngini = 0.336\nsamples = 263\nvalue = [31, 211, 21]"] ;
695 -> 696 ;
697 [label="X[66] <= 0.854\ngini = 0.3\nsamples = 250\nvalue = [23, 207, 20]"] ;
696 -> 697 ;
698 [label="X[36] <= 0.998\ngini = 0.276\nsamples = 243\nvalue = [19, 205, 19]"] ;
697 -> 698 ;
699 [label="X[64] <= 0.987\ngini = 0.263\nsamples = 237\nvalue = [16, 202, 19]"] ;
698 -> 699 ;
700 [label="X[32] <= 0.073\ngini = 0.226\nsamples = 192\nvalue = [15, 168, 9]"] ;
699 -> 700 ;
701 [label="gini = 0.0\nsamples = 1\nvalue = [1, 0, 0]"] ;
700 -> 701 ;
702 [label="X[4] <= 0.581\ngini = 0.219\nsamples = 191\nvalue = [14, 168, 9]"] ;
700 -> 702 ;
703 [label="X[60] <= 0.499\ngini = 0.188\nsamples = 177\nvalue = [11, 159, 7]"] ;
702 -> 703 ;
704 [label="X[12] <= 0.907\ngini = 0.308\nsamples = 73\nvalue = [8, 60, 5]"] ;
703 -> 704 ;
705 [label="X[66] <= 0.185\ngini = 0.453\nsamples = 37\nvalue = [8, 26, 3]"] ;
704 -> 705 ;
706 [label="X[4] <= 0.137\ngini = 0.653\nsamples = 7\nvalue = [3, 2, 2]"] ;
705 -> 706 ;
707 [label="X[62] <= 0.831\ngini = 0.5\nsamples = 4\nvalue = [0, 2, 2]"] ;
706 -> 707 ;
708 [label="gini = 0.0\nsamples = 2\nvalue = [0, 2, 0]"] ;
707 -> 708 ;
709 [label="gini = 0.0\nsamples = 2\nvalue = [0, 0, 2]"] ;
707 -> 709 ;
710 [label="gini = 0.0\nsamples = 3\nvalue = [3, 0, 0]"] ;
706 -> 710 ;
711 [label="X[10] <= 0.761\ngini = 0.331\nsamples = 30\nvalue = [5, 24, 1]"] ;
705 -> 711 ;
712 [label="X[1] <= 0.999\ngini = 0.218\nsamples = 25\nvalue = [2, 22, 1]"] ;
711 -> 712 ;
713 [label="X[33] <= 0.322\ngini = 0.083\nsamples = 23\nvalue = [1, 22, 0]"] ;
712 -> 713 ;
714 [label="gini = 0.0\nsamples = 1\nvalue = [1, 0, 0]"] ;
713 -> 714 ;
715 [label="gini = 0.0\nsamples = 22\nvalue = [0, 22, 0]"] ;
713 -> 715 ;
716 [label="X[0] <= 0.98\ngini = 0.5\nsamples = 2\nvalue = [1, 0, 1]"] ;
712 -> 716 ;
717 [label="gini = 0.0\nsamples = 1\nvalue = [1, 0, 0]"] ;
716 -> 717 ;
718 [label="gini = 0.0\nsamples = 1\nvalue = [0, 0, 1]"] ;
716 -> 718 ;
719 [label="X[6] <= 0.966\ngini = 0.48\nsamples = 5\nvalue = [3, 2, 0]"] ;
711 -> 719 ;
720 [label="gini = 0.0\nsamples = 2\nvalue = [0, 2, 0]"] ;
719 -> 720 ;
721 [label="gini = 0.0\nsamples = 3\nvalue = [3, 0, 0]"] ;
719 -> 721 ;
722 [label="X[51] <= 0.997\ngini = 0.105\nsamples = 36\nvalue = [0, 34, 2]"] ;
704 -> 722 ;
723 [label="X[52] <= 0.757\ngini = 0.056\nsamples = 35\nvalue = [0, 34, 1]"] ;
722 -> 723 ;
724 [label="gini = 0.0\nsamples = 33\nvalue = [0, 33, 0]"] ;
723 -> 724 ;
725 [label="X[7] <= 0.437\ngini = 0.5\nsamples = 2\nvalue = [0, 1, 1]"] ;
723 -> 725 ;
726 [label="gini = 0.0\nsamples = 1\nvalue = [0, 1, 0]"] ;
725 -> 726 ;
727 [label="gini = 0.0\nsamples = 1\nvalue = [0, 0, 1]"] ;
725 -> 727 ;
728 [label="gini = 0.0\nsamples = 1\nvalue = [0, 0, 1]"] ;
722 -> 728 ;
729 [label="X[34] <= 0.115\ngini = 0.093\nsamples = 104\nvalue = [3, 99, 2]"] ;
703 -> 729 ;
730 [label="X[29] <= 0.296\ngini = 0.5\nsamples = 2\nvalue = [0, 1, 1]"] ;
729 -> 730 ;
731 [label="gini = 0.0\nsamples = 1\nvalue = [0, 1, 0]"] ;
730 -> 731 ;
732 [label="gini = 0.0\nsamples = 1\nvalue = [0, 0, 1]"] ;
730 -> 732 ;
733 [label="X[57] <= 0.452\ngini = 0.076\nsamples = 102\nvalue = [3, 98, 1]"] ;
729 -> 733 ;
734 [label="X[55] <= 0.672\ngini = 0.5\nsamples = 2\nvalue = [1, 1, 0]"] ;
733 -> 734 ;
735 [label="gini = 0.0\nsamples = 1\nvalue = [1, 0, 0]"] ;
734 -> 735 ;
736 [label="gini = 0.0\nsamples = 1\nvalue = [0, 1, 0]"] ;
734 -> 736 ;
737 [label="X[36] <= 0.951\ngini = 0.059\nsamples = 100\nvalue = [2, 97, 1]"] ;
733 -> 737 ;
738 [label="X[44] <= 0.311\ngini = 0.041\nsamples = 97\nvalue = [1, 95, 1]"] ;
737 -> 738 ;
739 [label="X[28] <= 0.417\ngini = 0.375\nsamples = 4\nvalue = [1, 3, 0]"] ;
738 -> 739 ;
740 [label="gini = 0.0\nsamples = 1\nvalue = [1, 0, 0]"] ;
739 -> 740 ;
741 [label="gini = 0.0\nsamples = 3\nvalue = [0, 3, 0]"] ;
739 -> 741 ;
742 [label="X[36] <= 0.876\ngini = 0.021\nsamples = 93\nvalue = [0, 92, 1]"] ;
738 -> 742 ;
743 [label="gini = 0.0\nsamples = 86\nvalue = [0, 86, 0]"] ;
742 -> 743 ;
744 [label="X[61] <= 0.902\ngini = 0.245\nsamples = 7\nvalue = [0, 6, 1]"] ;
742 -> 744 ;
745 [label="gini = 0.0\nsamples = 6\nvalue = [0, 6, 0]"] ;
744 -> 745 ;
746 [label="gini = 0.0\nsamples = 1\nvalue = [0, 0, 1]"] ;
744 -> 746 ;
747 [label="X[55] <= 0.674\ngini = 0.444\nsamples = 3\nvalue = [1, 2, 0]"] ;
737 -> 747 ;
748 [label="gini = 0.0\nsamples = 2\nvalue = [0, 2, 0]"] ;
747 -> 748 ;
749 [label="gini = 0.0\nsamples = 1\nvalue = [1, 0, 0]"] ;
747 -> 749 ;
750 [label="X[28] <= 0.407\ngini = 0.52\nsamples = 14\nvalue = [3, 9, 2]"] ;
702 -> 750 ;
751 [label="X[10] <= 0.341\ngini = 0.5\nsamples = 4\nvalue = [2, 0, 2]"] ;
750 -> 751 ;
752 [label="gini = 0.0\nsamples = 2\nvalue = [0, 0, 2]"] ;
751 -> 752 ;
753 [label="gini = 0.0\nsamples = 2\nvalue = [2, 0, 0]"] ;
751 -> 753 ;
754 [label="X[58] <= 0.632\ngini = 0.18\nsamples = 10\nvalue = [1, 9, 0]"] ;
750 -> 754 ;
755 [label="gini = 0.0\nsamples = 1\nvalue = [1, 0, 0]"] ;
754 -> 755 ;
756 [label="gini = 0.0\nsamples = 9\nvalue = [0, 9, 0]"] ;
754 -> 756 ;
757 [label="X[27] <= 0.383\ngini = 0.379\nsamples = 45\nvalue = [1, 34, 10]"] ;
699 -> 757 ;
758 [label="X[13] <= 0.75\ngini = 0.444\nsamples = 6\nvalue = [0, 2, 4]"] ;
757 -> 758 ;
759 [label="gini = 0.0\nsamples = 2\nvalue = [0, 2, 0]"] ;
758 -> 759 ;
760 [label="gini = 0.0\nsamples = 4\nvalue = [0, 0, 4]"] ;
758 -> 760 ;
761 [label="X[0] <= 0.829\ngini = 0.302\nsamples = 39\nvalue = [1, 32, 6]"] ;
757 -> 761 ;
762 [label="gini = 0.0\nsamples = 1\nvalue = [1, 0, 0]"] ;
761 -> 762 ;
763 [label="X[5] <= 0.543\ngini = 0.266\nsamples = 38\nvalue = [0, 32, 6]"] ;
761 -> 763 ;
764 [label="gini = 0.0\nsamples = 17\nvalue = [0, 17, 0]"] ;
763 -> 764 ;
765 [label="X[12] <= 0.983\ngini = 0.408\nsamples = 21\nvalue = [0, 15, 6]"] ;
763 -> 765 ;
766 [label="gini = 0.0\nsamples = 10\nvalue = [0, 10, 0]"] ;
765 -> 766 ;
767 [label="X[60] <= 0.652\ngini = 0.496\nsamples = 11\nvalue = [0, 5, 6]"] ;
765 -> 767 ;
768 [label="X[8] <= 0.734\ngini = 0.469\nsamples = 8\nvalue = [0, 5, 3]"] ;
767 -> 768 ;
769 [label="gini = 0.0\nsamples = 4\nvalue = [0, 4, 0]"] ;
768 -> 769 ;
770 [label="X[43] <= 0.824\ngini = 0.375\nsamples = 4\nvalue = [0, 1, 3]"] ;
768 -> 770 ;
771 [label="gini = 0.0\nsamples = 3\nvalue = [0, 0, 3]"] ;
770 -> 771 ;
772 [label="gini = 0.0\nsamples = 1\nvalue = [0, 1, 0]"] ;
770 -> 772 ;
773 [label="gini = 0.0\nsamples = 3\nvalue = [0, 0, 3]"] ;
767 -> 773 ;
774 [label="X[27] <= 0.976\ngini = 0.5\nsamples = 6\nvalue = [3, 3, 0]"] ;
698 -> 774 ;
775 [label="gini = 0.0\nsamples = 3\nvalue = [3, 0, 0]"] ;
774 -> 775 ;
776 [label="gini = 0.0\nsamples = 3\nvalue = [0, 3, 0]"] ;
774 -> 776 ;
777 [label="X[33] <= 0.506\ngini = 0.571\nsamples = 7\nvalue = [4, 2, 1]"] ;
697 -> 777 ;
778 [label="X[9] <= 0.826\ngini = 0.444\nsamples = 3\nvalue = [0, 2, 1]"] ;
777 -> 778 ;
779 [label="gini = 0.0\nsamples = 2\nvalue = [0, 2, 0]"] ;
778 -> 779 ;
780 [label="gini = 0.0\nsamples = 1\nvalue = [0, 0, 1]"] ;
778 -> 780 ;
781 [label="gini = 0.0\nsamples = 4\nvalue = [4, 0, 0]"] ;
777 -> 781 ;
782 [label="X[46] <= 0.842\ngini = 0.521\nsamples = 13\nvalue = [8, 4, 1]"] ;
696 -> 782 ;
783 [label="X[38] <= 0.056\ngini = 0.5\nsamples = 6\nvalue = [1, 4, 1]"] ;
782 -> 783 ;
784 [label="X[35] <= 0.831\ngini = 0.5\nsamples = 2\nvalue = [1, 0, 1]"] ;
783 -> 784 ;
785 [label="gini = 0.0\nsamples = 1\nvalue = [0, 0, 1]"] ;
784 -> 785 ;
786 [label="gini = 0.0\nsamples = 1\nvalue = [1, 0, 0]"] ;
784 -> 786 ;
787 [label="gini = 0.0\nsamples = 4\nvalue = [0, 4, 0]"] ;
783 -> 787 ;
788 [label="gini = 0.0\nsamples = 7\nvalue = [7, 0, 0]"] ;
782 -> 788 ;
789 [label="X[24] <= 0.256\ngini = 0.159\nsamples = 129\nvalue = [8, 118, 3]"] ;
695 -> 789 ;
790 [label="gini = 0.0\nsamples = 1\nvalue = [0, 0, 1]"] ;
789 -> 790 ;
791 [label="X[44] <= 0.631\ngini = 0.146\nsamples = 128\nvalue = [8, 118, 2]"] ;
789 -> 791 ;
792 [label="gini = 0.0\nsamples = 1\nvalue = [1, 0, 0]"] ;
791 -> 792 ;
793 [label="X[45] <= 0.21\ngini = 0.133\nsamples = 127\nvalue = [7, 118, 2]"] ;
791 -> 793 ;
794 [label="X[10] <= 0.751\ngini = 0.667\nsamples = 3\nvalue = [1, 1, 1]"] ;
793 -> 794 ;
795 [label="gini = 0.0\nsamples = 1\nvalue = [0, 0, 1]"] ;
794 -> 795 ;
796 [label="X[38] <= 0.976\ngini = 0.5\nsamples = 2\nvalue = [1, 1, 0]"] ;
794 -> 796 ;
797 [label="gini = 0.0\nsamples = 1\nvalue = [0, 1, 0]"] ;
796 -> 797 ;
798 [label="gini = 0.0\nsamples = 1\nvalue = [1, 0, 0]"] ;
796 -> 798 ;
799 [label="X[4] <= 0.681\ngini = 0.107\nsamples = 124\nvalue = [6, 117, 1]"] ;
793 -> 799 ;
800 [label="X[27] <= 0.943\ngini = 0.094\nsamples = 122\nvalue = [5, 116, 1]"] ;
799 -> 800 ;
801 [label="X[42] <= 0.817\ngini = 0.042\nsamples = 93\nvalue = [1, 91, 1]"] ;
800 -> 801 ;
802 [label="X[4] <= 0.44\ngini = 0.022\nsamples = 89\nvalue = [1, 88, 0]"] ;
801 -> 802 ;
803 [label="gini = 0.0\nsamples = 85\nvalue = [0, 85, 0]"] ;
802 -> 803 ;
804 [label="X[24] <= 0.96\ngini = 0.375\nsamples = 4\nvalue = [1, 3, 0]"] ;
802 -> 804 ;
805 [label="gini = 0.0\nsamples = 3\nvalue = [0, 3, 0]"] ;
804 -> 805 ;
806 [label="gini = 0.0\nsamples = 1\nvalue = [1, 0, 0]"] ;
804 -> 806 ;
807 [label="X[38] <= 0.924\ngini = 0.375\nsamples = 4\nvalue = [0, 3, 1]"] ;
801 -> 807 ;
808 [label="gini = 0.0\nsamples = 3\nvalue = [0, 3, 0]"] ;
807 -> 808 ;
809 [label="gini = 0.0\nsamples = 1\nvalue = [0, 0, 1]"] ;
807 -> 809 ;
810 [label="X[53] <= 0.726\ngini = 0.238\nsamples = 29\nvalue = [4, 25, 0]"] ;
800 -> 810 ;
811 [label="X[35] <= 0.128\ngini = 0.142\nsamples = 26\nvalue = [2, 24, 0]"] ;
810 -> 811 ;
812 [label="gini = 0.0\nsamples = 1\nvalue = [1, 0, 0]"] ;
811 -> 812 ;
813 [label="X[27] <= 0.959\ngini = 0.077\nsamples = 25\nvalue = [1, 24, 0]"] ;
811 -> 813 ;
814 [label="gini = 0.0\nsamples = 1\nvalue = [1, 0, 0]"] ;
813 -> 814 ;
815 [label="gini = 0.0\nsamples = 24\nvalue = [0, 24, 0]"] ;
813 -> 815 ;
816 [label="X[44] <= 0.936\ngini = 0.444\nsamples = 3\nvalue = [2, 1, 0]"] ;
810 -> 816 ;
817 [label="gini = 0.0\nsamples = 1\nvalue = [0, 1, 0]"] ;
816 -> 817 ;
818 [label="gini = 0.0\nsamples = 2\nvalue = [2, 0, 0]"] ;
816 -> 818 ;
819 [label="X[64] <= 0.663\ngini = 0.5\nsamples = 2\nvalue = [1, 1, 0]"] ;
799 -> 819 ;
820 [label="gini = 0.0\nsamples = 1\nvalue = [0, 1, 0]"] ;
819 -> 820 ;
821 [label="gini = 0.0\nsamples = 1\nvalue = [1, 0, 0]"] ;
819 -> 821 ;
822 [label="X[8] <= 0.942\ngini = 0.453\nsamples = 128\nvalue = [17, 91, 20]"] ;
688 -> 822 ;
823 [label="X[66] <= 0.268\ngini = 0.421\nsamples = 122\nvalue = [17, 90, 15]"] ;
822 -> 823 ;
824 [label="X[54] <= 0.869\ngini = 0.625\nsamples = 12\nvalue = [6, 3, 3]"] ;
823 -> 824 ;
825 [label="gini = 0.0\nsamples = 3\nvalue = [0, 0, 3]"] ;
824 -> 825 ;
826 [label="X[62] <= 0.931\ngini = 0.444\nsamples = 9\nvalue = [6, 3, 0]"] ;
824 -> 826 ;
827 [label="X[31] <= 0.146\ngini = 0.375\nsamples = 4\nvalue = [1, 3, 0]"] ;
826 -> 827 ;
828 [label="gini = 0.0\nsamples = 3\nvalue = [0, 3, 0]"] ;
827 -> 828 ;
829 [label="gini = 0.0\nsamples = 1\nvalue = [1, 0, 0]"] ;
827 -> 829 ;
830 [label="gini = 0.0\nsamples = 5\nvalue = [5, 0, 0]"] ;
826 -> 830 ;
831 [label="X[27] <= 0.442\ngini = 0.353\nsamples = 110\nvalue = [11, 87, 12]"] ;
823 -> 831 ;
832 [label="X[4] <= 0.419\ngini = 0.568\nsamples = 13\nvalue = [1, 6, 6]"] ;
831 -> 832 ;
833 [label="X[24] <= 0.617\ngini = 0.406\nsamples = 8\nvalue = [1, 1, 6]"] ;
832 -> 833 ;
834 [label="gini = 0.0\nsamples = 6\nvalue = [0, 0, 6]"] ;
833 -> 834 ;
835 [label="X[64] <= 0.905\ngini = 0.5\nsamples = 2\nvalue = [1, 1, 0]"] ;
833 -> 835 ;
836 [label="gini = 0.0\nsamples = 1\nvalue = [0, 1, 0]"] ;
835 -> 836 ;
837 [label="gini = 0.0\nsamples = 1\nvalue = [1, 0, 0]"] ;
835 -> 837 ;
838 [label="gini = 0.0\nsamples = 5\nvalue = [0, 5, 0]"] ;
832 -> 838 ;
839 [label="X[53] <= 0.447\ngini = 0.288\nsamples = 97\nvalue = [10, 81, 6]"] ;
831 -> 839 ;
840 [label="X[13] <= 0.996\ngini = 0.444\nsamples = 3\nvalue = [1, 0, 2]"] ;
839 -> 840 ;
841 [label="gini = 0.0\nsamples = 1\nvalue = [1, 0, 0]"] ;
840 -> 841 ;
842 [label="gini = 0.0\nsamples = 2\nvalue = [0, 0, 2]"] ;
840 -> 842 ;
843 [label="X[26] <= 0.766\ngini = 0.246\nsamples = 94\nvalue = [9, 81, 4]"] ;
839 -> 843 ;
844 [label="X[32] <= 0.967\ngini = 0.526\nsamples = 21\nvalue = [6, 13, 2]"] ;
843 -> 844 ;
845 [label="X[8] <= 0.848\ngini = 0.611\nsamples = 12\nvalue = [6, 4, 2]"] ;
844 -> 845 ;
846 [label="X[55] <= 0.899\ngini = 0.494\nsamples = 9\nvalue = [6, 1, 2]"] ;
845 -> 846 ;
847 [label="X[36] <= 0.991\ngini = 0.245\nsamples = 7\nvalue = [6, 1, 0]"] ;
846 -> 847 ;
848 [label="gini = 0.0\nsamples = 6\nvalue = [6, 0, 0]"] ;
847 -> 848 ;
849 [label="gini = 0.0\nsamples = 1\nvalue = [0, 1, 0]"] ;
847 -> 849 ;
850 [label="gini = 0.0\nsamples = 2\nvalue = [0, 0, 2]"] ;
846 -> 850 ;
851 [label="gini = 0.0\nsamples = 3\nvalue = [0, 3, 0]"] ;
845 -> 851 ;
852 [label="gini = 0.0\nsamples = 9\nvalue = [0, 9, 0]"] ;
844 -> 852 ;
853 [label="X[52] <= 0.875\ngini = 0.13\nsamples = 73\nvalue = [3, 68, 2]"] ;
843 -> 853 ;
854 [label="X[5] <= 0.224\ngini = 0.058\nsamples = 68\nvalue = [1, 66, 1]"] ;
853 -> 854 ;
855 [label="gini = 0.0\nsamples = 1\nvalue = [1, 0, 0]"] ;
854 -> 855 ;
856 [label="X[24] <= 0.926\ngini = 0.029\nsamples = 67\nvalue = [0, 66, 1]"] ;
854 -> 856 ;
857 [label="gini = 0.0\nsamples = 63\nvalue = [0, 63, 0]"] ;
856 -> 857 ;
858 [label="X[24] <= 0.945\ngini = 0.375\nsamples = 4\nvalue = [0, 3, 1]"] ;
856 -> 858 ;
859 [label="gini = 0.0\nsamples = 1\nvalue = [0, 0, 1]"] ;
858 -> 859 ;
860 [label="gini = 0.0\nsamples = 3\nvalue = [0, 3, 0]"] ;
858 -> 860 ;
861 [label="X[27] <= 0.518\ngini = 0.64\nsamples = 5\nvalue = [2, 2, 1]"] ;
853 -> 861 ;
862 [label="gini = 0.0\nsamples = 2\nvalue = [0, 2, 0]"] ;
861 -> 862 ;
863 [label="X[16] <= 0.973\ngini = 0.444\nsamples = 3\nvalue = [2, 0, 1]"] ;
861 -> 863 ;
864 [label="gini = 0.0\nsamples = 1\nvalue = [0, 0, 1]"] ;
863 -> 864 ;
865 [label="gini = 0.0\nsamples = 2\nvalue = [2, 0, 0]"] ;
863 -> 865 ;
866 [label="X[47] <= 0.983\ngini = 0.278\nsamples = 6\nvalue = [0, 1, 5]"] ;
822 -> 866 ;
867 [label="gini = 0.0\nsamples = 5\nvalue = [0, 0, 5]"] ;
866 -> 867 ;
868 [label="gini = 0.0\nsamples = 1\nvalue = [0, 1, 0]"] ;
866 -> 868 ;
}